FANN_FIX_2.0
decimal_point=8
num_layers=3
learning_rate=0.900000
connection_rate=1.000000
network_type=0
learning_momentum=0.800000
training_algorithm=2
train_error_function=1
train_stop_function=0
cascade_output_change_fraction=0.010000
quickprop_decay=-0.000100
quickprop_mu=1.750000
rprop_increase_factor=1.200000
rprop_decrease_factor=0.500000
rprop_delta_min=0.000000
rprop_delta_max=50.000000
rprop_delta_zero=0.100000
cascade_output_stagnation_epochs=12
cascade_candidate_change_fraction=0.010000
cascade_candidate_stagnation_epochs=12
cascade_max_out_epochs=150
cascade_min_out_epochs=50
cascade_max_cand_epochs=150
cascade_min_cand_epochs=50
cascade_num_candidate_groups=2
bit_fail_limit=90
cascade_candidate_limit=256000
cascade_weight_multiplier=102
cascade_activation_functions_count=10
cascade_activation_functions=3 5 7 8 10 11 14 15 16 17 
cascade_activation_steepnesses_count=4
cascade_activation_steepnesses=64 128 192 256 
layer_sizes=1251 126 5 
neurons (num_inputs, activation_function, activation_steepness)=(0, 0, 0) (0, 0, 0) (0, 0, 0) (0, 0, 0) (0, 0, 0) (0, 0, 0) (0, 0, 0) (0, 0, 0) (0, 0, 0) (0, 0, 0) (0, 0, 0) (0, 0, 0) (0, 0, 0) (0, 0, 0) (0, 0, 0) (0, 0, 0) (0, 0, 0) (0, 0, 0) (0, 0, 0) (0, 0, 0) (0, 0, 0) (0, 0, 0) (0, 0, 0) (0, 0, 0) (0, 0, 0) (0, 0, 0) (0, 0, 0) (0, 0, 0) (0, 0, 0) (0, 0, 0) (0, 0, 0) (0, 0, 0) (0, 0, 0) (0, 0, 0) (0, 0, 0) (0, 0, 0) (0, 0, 0) (0, 0, 0) (0, 0, 0) (0, 0, 0) (0, 0, 0) (0, 0, 0) (0, 0, 0) (0, 0, 0) (0, 0, 0) (0, 0, 0) (0, 0, 0) (0, 0, 0) (0, 0, 0) (0, 0, 0) (0, 0, 0) (0, 0, 0) (0, 0, 0) (0, 0, 0) (0, 0, 0) (0, 0, 0) (0, 0, 0) (0, 0, 0) (0, 0, 0) (0, 0, 0) (0, 0, 0) (0, 0, 0) (0, 0, 0) (0, 0, 0) (0, 0, 0) (0, 0, 0) (0, 0, 0) (0, 0, 0) (0, 0, 0) (0, 0, 0) (0, 0, 0) (0, 0, 0) (0, 0, 0) (0, 0, 0) (0, 0, 0) (0, 0, 0) (0, 0, 0) (0, 0, 0) (0, 0, 0) (0, 0, 0) (0, 0, 0) (0, 0, 0) (0, 0, 0) (0, 0, 0) (0, 0, 0) (0, 0, 0) (0, 0, 0) (0, 0, 0) (0, 0, 0) (0, 0, 0) (0, 0, 0) (0, 0, 0) (0, 0, 0) (0, 0, 0) (0, 0, 0) (0, 0, 0) (0, 0, 0) (0, 0, 0) (0, 0, 0) (0, 0, 0) (0, 0, 0) (0, 0, 0) (0, 0, 0) (0, 0, 0) (0, 0, 0) (0, 0, 0) (0, 0, 0) (0, 0, 0) (0, 0, 0) (0, 0, 0) (0, 0, 0) (0, 0, 0) (0, 0, 0) (0, 0, 0) (0, 0, 0) (0, 0, 0) (0, 0, 0) (0, 0, 0) (0, 0, 0) (0, 0, 0) (0, 0, 0) (0, 0, 0) (0, 0, 0) (0, 0, 0) (0, 0, 0) (0, 0, 0) (0, 0, 0) (0, 0, 0) (0, 0, 0) (0, 0, 0) (0, 0, 0) (0, 0, 0) (0, 0, 0) (0, 0, 0) (0, 0, 0) (0, 0, 0) (0, 0, 0) (0, 0, 0) (0, 0, 0) (0, 0, 0) (0, 0, 0) (0, 0, 0) (0, 0, 0) (0, 0, 0) (0, 0, 0) (0, 0, 0) (0, 0, 0) (0, 0, 0) (0, 0, 0) (0, 0, 0) (0, 0, 0) (0, 0, 0) (0, 0, 0) (0, 0, 0) (0, 0, 0) (0, 0, 0) (0, 0, 0) (0, 0, 0) (0, 0, 0) (0, 0, 0) (0, 0, 0) (0, 0, 0) (0, 0, 0) (0, 0, 0) (0, 0, 0) (0, 0, 0) (0, 0, 0) (0, 0, 0) (0, 0, 0) (0, 0, 0) (0, 0, 0) (0, 0, 0) (0, 0, 0) (0, 0, 0) (0, 0, 0) (0, 0, 0) (0, 0, 0) (0, 0, 0) (0, 0, 0) (0, 0, 0) (0, 0, 0) (0, 0, 0) (0, 0, 0) (0, 0, 0) (0, 0, 0) (0, 0, 0) (0, 0, 0) (0, 0, 0) (0, 0, 0) (0, 0, 0) (0, 0, 0) (0, 0, 0) (0, 0, 0) (0, 0, 0) (0, 0, 0) (0, 0, 0) (0, 0, 0) (0, 0, 0) (0, 0, 0) (0, 0, 0) (0, 0, 0) (0, 0, 0) (0, 0, 0) (0, 0, 0) (0, 0, 0) (0, 0, 0) (0, 0, 0) (0, 0, 0) (0, 0, 0) (0, 0, 0) (0, 0, 0) (0, 0, 0) (0, 0, 0) (0, 0, 0) (0, 0, 0) (0, 0, 0) (0, 0, 0) (0, 0, 0) (0, 0, 0) (0, 0, 0) (0, 0, 0) (0, 0, 0) (0, 0, 0) (0, 0, 0) (0, 0, 0) (0, 0, 0) (0, 0, 0) (0, 0, 0) (0, 0, 0) (0, 0, 0) (0, 0, 0) (0, 0, 0) (0, 0, 0) (0, 0, 0) (0, 0, 0) (0, 0, 0) (0, 0, 0) (0, 0, 0) (0, 0, 0) (0, 0, 0) (0, 0, 0) (0, 0, 0) (0, 0, 0) (0, 0, 0) (0, 0, 0) (0, 0, 0) (0, 0, 0) (0, 0, 0) (0, 0, 0) (0, 0, 0) (0, 0, 0) (0, 0, 0) (0, 0, 0) (0, 0, 0) (0, 0, 0) (0, 0, 0) (0, 0, 0) (0, 0, 0) (0, 0, 0) (0, 0, 0) (0, 0, 0) (0, 0, 0) (0, 0, 0) (0, 0, 0) (0, 0, 0) (0, 0, 0) (0, 0, 0) (0, 0, 0) (0, 0, 0) (0, 0, 0) (0, 0, 0) (0, 0, 0) (0, 0, 0) (0, 0, 0) (0, 0, 0) (0, 0, 0) (0, 0, 0) (0, 0, 0) (0, 0, 0) (0, 0, 0) (0, 0, 0) (0, 0, 0) (0, 0, 0) (0, 0, 0) (0, 0, 0) (0, 0, 0) (0, 0, 0) (0, 0, 0) (0, 0, 0) (0, 0, 0) (0, 0, 0) (0, 0, 0) (0, 0, 0) (0, 0, 0) (0, 0, 0) (0, 0, 0) (0, 0, 0) (0, 0, 0) (0, 0, 0) (0, 0, 0) (0, 0, 0) (0, 0, 0) (0, 0, 0) (0, 0, 0) (0, 0, 0) (0, 0, 0) (0, 0, 0) (0, 0, 0) (0, 0, 0) (0, 0, 0) (0, 0, 0) (0, 0, 0) (0, 0, 0) (0, 0, 0) (0, 0, 0) (0, 0, 0) (0, 0, 0) (0, 0, 0) (0, 0, 0) (0, 0, 0) (0, 0, 0) (0, 0, 0) (0, 0, 0) (0, 0, 0) (0, 0, 0) (0, 0, 0) (0, 0, 0) (0, 0, 0) (0, 0, 0) (0, 0, 0) (0, 0, 0) (0, 0, 0) (0, 0, 0) (0, 0, 0) (0, 0, 0) (0, 0, 0) (0, 0, 0) (0, 0, 0) (0, 0, 0) (0, 0, 0) (0, 0, 0) (0, 0, 0) (0, 0, 0) (0, 0, 0) (0, 0, 0) (0, 0, 0) (0, 0, 0) (0, 0, 0) (0, 0, 0) (0, 0, 0) (0, 0, 0) (0, 0, 0) (0, 0, 0) (0, 0, 0) (0, 0, 0) (0, 0, 0) (0, 0, 0) (0, 0, 0) (0, 0, 0) (0, 0, 0) (0, 0, 0) (0, 0, 0) (0, 0, 0) (0, 0, 0) (0, 0, 0) (0, 0, 0) (0, 0, 0) (0, 0, 0) (0, 0, 0) (0, 0, 0) (0, 0, 0) (0, 0, 0) (0, 0, 0) (0, 0, 0) (0, 0, 0) (0, 0, 0) (0, 0, 0) (0, 0, 0) (0, 0, 0) (0, 0, 0) (0, 0, 0) (0, 0, 0) (0, 0, 0) (0, 0, 0) (0, 0, 0) (0, 0, 0) (0, 0, 0) (0, 0, 0) (0, 0, 0) (0, 0, 0) (0, 0, 0) (0, 0, 0) (0, 0, 0) (0, 0, 0) (0, 0, 0) (0, 0, 0) (0, 0, 0) (0, 0, 0) (0, 0, 0) (0, 0, 0) (0, 0, 0) (0, 0, 0) (0, 0, 0) (0, 0, 0) (0, 0, 0) (0, 0, 0) (0, 0, 0) (0, 0, 0) (0, 0, 0) (0, 0, 0) (0, 0, 0) (0, 0, 0) (0, 0, 0) (0, 0, 0) (0, 0, 0) (0, 0, 0) (0, 0, 0) (0, 0, 0) (0, 0, 0) (0, 0, 0) (0, 0, 0) (0, 0, 0) (0, 0, 0) (0, 0, 0) (0, 0, 0) (0, 0, 0) (0, 0, 0) (0, 0, 0) (0, 0, 0) (0, 0, 0) (0, 0, 0) (0, 0, 0) (0, 0, 0) (0, 0, 0) (0, 0, 0) (0, 0, 0) (0, 0, 0) (0, 0, 0) (0, 0, 0) (0, 0, 0) (0, 0, 0) (0, 0, 0) (0, 0, 0) (0, 0, 0) (0, 0, 0) (0, 0, 0) (0, 0, 0) (0, 0, 0) (0, 0, 0) (0, 0, 0) (0, 0, 0) (0, 0, 0) (0, 0, 0) (0, 0, 0) (0, 0, 0) (0, 0, 0) (0, 0, 0) (0, 0, 0) (0, 0, 0) (0, 0, 0) (0, 0, 0) (0, 0, 0) (0, 0, 0) (0, 0, 0) (0, 0, 0) (0, 0, 0) (0, 0, 0) (0, 0, 0) (0, 0, 0) (0, 0, 0) (0, 0, 0) (0, 0, 0) (0, 0, 0) (0, 0, 0) (0, 0, 0) (0, 0, 0) (0, 0, 0) (0, 0, 0) (0, 0, 0) (0, 0, 0) (0, 0, 0) (0, 0, 0) (0, 0, 0) (0, 0, 0) (0, 0, 0) (0, 0, 0) (0, 0, 0) (0, 0, 0) (0, 0, 0) (0, 0, 0) (0, 0, 0) (0, 0, 0) (0, 0, 0) (0, 0, 0) (0, 0, 0) (0, 0, 0) (0, 0, 0) (0, 0, 0) (0, 0, 0) (0, 0, 0) (0, 0, 0) (0, 0, 0) (0, 0, 0) (0, 0, 0) (0, 0, 0) (0, 0, 0) (0, 0, 0) (0, 0, 0) (0, 0, 0) (0, 0, 0) (0, 0, 0) (0, 0, 0) (0, 0, 0) (0, 0, 0) (0, 0, 0) (0, 0, 0) (0, 0, 0) (0, 0, 0) (0, 0, 0) (0, 0, 0) (0, 0, 0) (0, 0, 0) (0, 0, 0) (0, 0, 0) (0, 0, 0) (0, 0, 0) (0, 0, 0) (0, 0, 0) (0, 0, 0) (0, 0, 0) (0, 0, 0) (0, 0, 0) (0, 0, 0) (0, 0, 0) (0, 0, 0) (0, 0, 0) (0, 0, 0) (0, 0, 0) (0, 0, 0) (0, 0, 0) (0, 0, 0) (0, 0, 0) (0, 0, 0) (0, 0, 0) (0, 0, 0) (0, 0, 0) (0, 0, 0) (0, 0, 0) (0, 0, 0) (0, 0, 0) (0, 0, 0) (0, 0, 0) (0, 0, 0) (0, 0, 0) (0, 0, 0) (0, 0, 0) (0, 0, 0) (0, 0, 0) (0, 0, 0) (0, 0, 0) (0, 0, 0) (0, 0, 0) (0, 0, 0) (0, 0, 0) (0, 0, 0) (0, 0, 0) (0, 0, 0) (0, 0, 0) (0, 0, 0) (0, 0, 0) (0, 0, 0) (0, 0, 0) (0, 0, 0) (0, 0, 0) (0, 0, 0) (0, 0, 0) (0, 0, 0) (0, 0, 0) (0, 0, 0) (0, 0, 0) (0, 0, 0) (0, 0, 0) (0, 0, 0) (0, 0, 0) (0, 0, 0) (0, 0, 0) (0, 0, 0) (0, 0, 0) (0, 0, 0) (0, 0, 0) (0, 0, 0) (0, 0, 0) (0, 0, 0) (0, 0, 0) (0, 0, 0) (0, 0, 0) (0, 0, 0) (0, 0, 0) (0, 0, 0) (0, 0, 0) (0, 0, 0) (0, 0, 0) (0, 0, 0) (0, 0, 0) (0, 0, 0) (0, 0, 0) (0, 0, 0) (0, 0, 0) (0, 0, 0) (0, 0, 0) (0, 0, 0) (0, 0, 0) (0, 0, 0) (0, 0, 0) (0, 0, 0) (0, 0, 0) (0, 0, 0) (0, 0, 0) (0, 0, 0) (0, 0, 0) (0, 0, 0) (0, 0, 0) (0, 0, 0) (0, 0, 0) (0, 0, 0) (0, 0, 0) (0, 0, 0) (0, 0, 0) (0, 0, 0) (0, 0, 0) (0, 0, 0) (0, 0, 0) (0, 0, 0) (0, 0, 0) (0, 0, 0) (0, 0, 0) (0, 0, 0) (0, 0, 0) (0, 0, 0) (0, 0, 0) (0, 0, 0) (0, 0, 0) (0, 0, 0) (0, 0, 0) (0, 0, 0) (0, 0, 0) (0, 0, 0) (0, 0, 0) (0, 0, 0) (0, 0, 0) (0, 0, 0) (0, 0, 0) (0, 0, 0) (0, 0, 0) (0, 0, 0) (0, 0, 0) (0, 0, 0) (0, 0, 0) (0, 0, 0) (0, 0, 0) (0, 0, 0) (0, 0, 0) (0, 0, 0) (0, 0, 0) (0, 0, 0) (0, 0, 0) (0, 0, 0) (0, 0, 0) (0, 0, 0) (0, 0, 0) (0, 0, 0) (0, 0, 0) (0, 0, 0) (0, 0, 0) (0, 0, 0) (0, 0, 0) (0, 0, 0) (0, 0, 0) (0, 0, 0) (0, 0, 0) (0, 0, 0) (0, 0, 0) (0, 0, 0) (0, 0, 0) (0, 0, 0) (0, 0, 0) (0, 0, 0) (0, 0, 0) (0, 0, 0) (0, 0, 0) (0, 0, 0) (0, 0, 0) (0, 0, 0) (0, 0, 0) (0, 0, 0) (0, 0, 0) (0, 0, 0) (0, 0, 0) (0, 0, 0) (0, 0, 0) (0, 0, 0) (0, 0, 0) (0, 0, 0) (0, 0, 0) (0, 0, 0) (0, 0, 0) (0, 0, 0) (0, 0, 0) (0, 0, 0) (0, 0, 0) (0, 0, 0) (0, 0, 0) (0, 0, 0) (0, 0, 0) (0, 0, 0) (0, 0, 0) (0, 0, 0) (0, 0, 0) (0, 0, 0) (0, 0, 0) (0, 0, 0) (0, 0, 0) (0, 0, 0) (0, 0, 0) (0, 0, 0) (0, 0, 0) (0, 0, 0) (0, 0, 0) (0, 0, 0) (0, 0, 0) (0, 0, 0) (0, 0, 0) (0, 0, 0) (0, 0, 0) (0, 0, 0) (0, 0, 0) (0, 0, 0) (0, 0, 0) (0, 0, 0) (0, 0, 0) (0, 0, 0) (0, 0, 0) (0, 0, 0) (0, 0, 0) (0, 0, 0) (0, 0, 0) (0, 0, 0) (0, 0, 0) (0, 0, 0) (0, 0, 0) (0, 0, 0) (0, 0, 0) (0, 0, 0) (0, 0, 0) (0, 0, 0) (0, 0, 0) (0, 0, 0) (0, 0, 0) (0, 0, 0) (0, 0, 0) (0, 0, 0) (0, 0, 0) (0, 0, 0) (0, 0, 0) (0, 0, 0) (0, 0, 0) (0, 0, 0) (0, 0, 0) (0, 0, 0) (0, 0, 0) (0, 0, 0) (0, 0, 0) (0, 0, 0) (0, 0, 0) (0, 0, 0) (0, 0, 0) (0, 0, 0) (0, 0, 0) (0, 0, 0) (0, 0, 0) (0, 0, 0) (0, 0, 0) (0, 0, 0) (0, 0, 0) (0, 0, 0) (0, 0, 0) (0, 0, 0) (0, 0, 0) (0, 0, 0) (0, 0, 0) (0, 0, 0) (0, 0, 0) (0, 0, 0) (0, 0, 0) (0, 0, 0) (0, 0, 0) (0, 0, 0) (0, 0, 0) (0, 0, 0) (0, 0, 0) (0, 0, 0) (0, 0, 0) (0, 0, 0) (0, 0, 0) (0, 0, 0) (0, 0, 0) (0, 0, 0) (0, 0, 0) (0, 0, 0) (0, 0, 0) (0, 0, 0) (0, 0, 0) (0, 0, 0) (0, 0, 0) (0, 0, 0) (0, 0, 0) (0, 0, 0) (0, 0, 0) (0, 0, 0) (0, 0, 0) (0, 0, 0) (0, 0, 0) (0, 0, 0) (0, 0, 0) (0, 0, 0) (0, 0, 0) (0, 0, 0) (0, 0, 0) (0, 0, 0) (0, 0, 0) (0, 0, 0) (0, 0, 0) (0, 0, 0) (0, 0, 0) (0, 0, 0) (0, 0, 0) (0, 0, 0) (0, 0, 0) (0, 0, 0) (0, 0, 0) (0, 0, 0) (0, 0, 0) (0, 0, 0) (0, 0, 0) (0, 0, 0) (0, 0, 0) (0, 0, 0) (0, 0, 0) (0, 0, 0) (0, 0, 0) (0, 0, 0) (0, 0, 0) (0, 0, 0) (0, 0, 0) (0, 0, 0) (0, 0, 0) (0, 0, 0) (0, 0, 0) (0, 0, 0) (0, 0, 0) (0, 0, 0) (0, 0, 0) (0, 0, 0) (0, 0, 0) (0, 0, 0) (0, 0, 0) (0, 0, 0) (0, 0, 0) (0, 0, 0) (0, 0, 0) (0, 0, 0) (0, 0, 0) (0, 0, 0) (0, 0, 0) (0, 0, 0) (0, 0, 0) (0, 0, 0) (0, 0, 0) (0, 0, 0) (0, 0, 0) (0, 0, 0) (0, 0, 0) (0, 0, 0) (0, 0, 0) (0, 0, 0) (0, 0, 0) (0, 0, 0) (0, 0, 0) (0, 0, 0) (0, 0, 0) (0, 0, 0) (0, 0, 0) (0, 0, 0) (0, 0, 0) (0, 0, 0) (0, 0, 0) (0, 0, 0) (0, 0, 0) (0, 0, 0) (0, 0, 0) (0, 0, 0) (0, 0, 0) (0, 0, 0) (0, 0, 0) (0, 0, 0) (0, 0, 0) (0, 0, 0) (0, 0, 0) (0, 0, 0) (0, 0, 0) (0, 0, 0) (0, 0, 0) (0, 0, 0) (0, 0, 0) (0, 0, 0) (0, 0, 0) (0, 0, 0) (0, 0, 0) (0, 0, 0) (0, 0, 0) (0, 0, 0) (0, 0, 0) (0, 0, 0) (0, 0, 0) (0, 0, 0) (0, 0, 0) (0, 0, 0) (0, 0, 0) (0, 0, 0) (0, 0, 0) (0, 0, 0) (0, 0, 0) (0, 0, 0) (0, 0, 0) (0, 0, 0) (0, 0, 0) (0, 0, 0) (0, 0, 0) (0, 0, 0) (0, 0, 0) (0, 0, 0) (0, 0, 0) (0, 0, 0) (0, 0, 0) (0, 0, 0) (0, 0, 0) (0, 0, 0) (0, 0, 0) (0, 0, 0) (0, 0, 0) (0, 0, 0) (0, 0, 0) (0, 0, 0) (0, 0, 0) (0, 0, 0) (0, 0, 0) (0, 0, 0) (0, 0, 0) (0, 0, 0) (0, 0, 0) (0, 0, 0) (0, 0, 0) (0, 0, 0) (0, 0, 0) (0, 0, 0) (0, 0, 0) (0, 0, 0) (0, 0, 0) (0, 0, 0) (0, 0, 0) (0, 0, 0) (0, 0, 0) (0, 0, 0) (0, 0, 0) (0, 0, 0) (0, 0, 0) (0, 0, 0) (0, 0, 0) (0, 0, 0) (0, 0, 0) (0, 0, 0) (0, 0, 0) (0, 0, 0) (0, 0, 0) (0, 0, 0) (0, 0, 0) (0, 0, 0) (0, 0, 0) (0, 0, 0) (0, 0, 0) (0, 0, 0) (0, 0, 0) (0, 0, 0) (0, 0, 0) (0, 0, 0) (0, 0, 0) (0, 0, 0) (0, 0, 0) (0, 0, 0) (0, 0, 0) (0, 0, 0) (0, 0, 0) (0, 0, 0) (0, 0, 0) (0, 0, 0) (0, 0, 0) (0, 0, 0) (0, 0, 0) (0, 0, 0) (0, 0, 0) (0, 0, 0) (0, 0, 0) (0, 0, 0) (0, 0, 0) (0, 0, 0) (0, 0, 0) (0, 0, 0) (0, 0, 0) (0, 0, 0) (0, 0, 0) (0, 0, 0) (0, 0, 0) (0, 0, 0) (0, 0, 0) (0, 0, 0) (0, 0, 0) (0, 0, 0) (0, 0, 0) (0, 0, 0) (0, 0, 0) (0, 0, 0) (0, 0, 0) (0, 0, 0) (0, 0, 0) (0, 0, 0) (0, 0, 0) (0, 0, 0) (0, 0, 0) (0, 0, 0) (0, 0, 0) (0, 0, 0) (0, 0, 0) (0, 0, 0) (0, 0, 0) (0, 0, 0) (0, 0, 0) (0, 0, 0) (0, 0, 0) (0, 0, 0) (0, 0, 0) (0, 0, 0) (0, 0, 0) (0, 0, 0) (0, 0, 0) (0, 0, 0) (0, 0, 0) (0, 0, 0) (0, 0, 0) (0, 0, 0) (0, 0, 0) (0, 0, 0) (0, 0, 0) (0, 0, 0) (0, 0, 0) (0, 0, 0) (0, 0, 0) (0, 0, 0) (0, 0, 0) (0, 0, 0) (0, 0, 0) (0, 0, 0) (0, 0, 0) (0, 0, 0) (0, 0, 0) (0, 0, 0) (0, 0, 0) (0, 0, 0) (0, 0, 0) (0, 0, 0) (0, 0, 0) (0, 0, 0) (0, 0, 0) (0, 0, 0) (0, 0, 0) (0, 0, 0) (0, 0, 0) (0, 0, 0) (0, 0, 0) (0, 0, 0) (0, 0, 0) (0, 0, 0) (0, 0, 0) (0, 0, 0) (0, 0, 0) (0, 0, 0) (0, 0, 0) (0, 0, 0) (0, 0, 0) (0, 0, 0) (0, 0, 0) (0, 0, 0) (0, 0, 0) (0, 0, 0) (0, 0, 0) (0, 0, 0) (0, 0, 0) (0, 0, 0) (0, 0, 0) (0, 0, 0) (0, 0, 0) (0, 0, 0) (0, 0, 0) (0, 0, 0) (0, 0, 0) (0, 0, 0) (0, 0, 0) (0, 0, 0) (0, 0, 0) (0, 0, 0) (0, 0, 0) (0, 0, 0) (0, 0, 0) (0, 0, 0) (0, 0, 0) (0, 0, 0) (0, 0, 0) (0, 0, 0) (0, 0, 0) (0, 0, 0) (0, 0, 0) (0, 0, 0) (0, 0, 0) (0, 0, 0) (0, 0, 0) (0, 0, 0) (0, 0, 0) (0, 0, 0) (0, 0, 0) (0, 0, 0) (0, 0, 0) (0, 0, 0) (0, 0, 0) (0, 0, 0) (0, 0, 0) (0, 0, 0) (0, 0, 0) (0, 0, 0) (0, 0, 0) (0, 0, 0) (0, 0, 0) (0, 0, 0) (0, 0, 0) (0, 0, 0) (0, 0, 0) (0, 0, 0) (0, 0, 0) (0, 0, 0) (0, 0, 0) (0, 0, 0) (0, 0, 0) (0, 0, 0) (0, 0, 0) (0, 0, 0) (0, 0, 0) (0, 0, 0) (0, 0, 0) (0, 0, 0) (0, 0, 0) (0, 0, 0) (0, 0, 0) (0, 0, 0) (0, 0, 0) (0, 0, 0) (0, 0, 0) (0, 0, 0) (0, 0, 0) (0, 0, 0) (0, 0, 0) (0, 0, 0) (0, 0, 0) (0, 0, 0) (0, 0, 0) (0, 0, 0) (0, 0, 0) (0, 0, 0) (0, 0, 0) (0, 0, 0) (0, 0, 0) (0, 0, 0) (0, 0, 0) (0, 0, 0) (0, 0, 0) (0, 0, 0) (0, 0, 0) (0, 0, 0) (0, 0, 0) (0, 0, 0) (0, 0, 0) (0, 0, 0) (0, 0, 0) (0, 0, 0) (0, 0, 0) (0, 0, 0) (0, 0, 0) (0, 0, 0) (0, 0, 0) (0, 0, 0) (0, 0, 0) (0, 0, 0) (0, 0, 0) (0, 0, 0) (0, 0, 0) (0, 0, 0) (0, 0, 0) (0, 0, 0) (0, 0, 0) (0, 0, 0) (0, 0, 0) (0, 0, 0) (0, 0, 0) (0, 0, 0) (0, 0, 0) (0, 0, 0) (0, 0, 0) (0, 0, 0) (0, 0, 0) (0, 0, 0) (0, 0, 0) (0, 0, 0) (0, 0, 0) (0, 0, 0) (0, 0, 0) (0, 0, 0) (0, 0, 0) (0, 0, 0) (0, 0, 0) (0, 0, 0) (0, 0, 0) (0, 0, 0) (0, 0, 0) (0, 0, 0) (0, 0, 0) (0, 0, 0) (0, 0, 0) (0, 0, 0) (0, 0, 0) (0, 0, 0) (0, 0, 0) (0, 0, 0) (0, 0, 0) (0, 0, 0) (1251, 6, 256) (1251, 6, 256) (1251, 6, 256) (1251, 6, 256) (1251, 6, 256) (1251, 6, 256) (1251, 6, 256) (1251, 6, 256) (1251, 6, 256) (1251, 6, 256) (1251, 6, 256) (1251, 6, 256) (1251, 6, 256) (1251, 6, 256) (1251, 6, 256) (1251, 6, 256) (1251, 6, 256) (1251, 6, 256) (1251, 6, 256) (1251, 6, 256) (1251, 6, 256) (1251, 6, 256) (1251, 6, 256) (1251, 6, 256) (1251, 6, 256) (1251, 6, 256) (1251, 6, 256) (1251, 6, 256) (1251, 6, 256) (1251, 6, 256) (1251, 6, 256) (1251, 6, 256) (1251, 6, 256) (1251, 6, 256) (1251, 6, 256) (1251, 6, 256) (1251, 6, 256) (1251, 6, 256) (1251, 6, 256) (1251, 6, 256) (1251, 6, 256) (1251, 6, 256) (1251, 6, 256) (1251, 6, 256) (1251, 6, 256) (1251, 6, 256) (1251, 6, 256) (1251, 6, 256) (1251, 6, 256) (1251, 6, 256) (1251, 6, 256) (1251, 6, 256) (1251, 6, 256) (1251, 6, 256) (1251, 6, 256) (1251, 6, 256) (1251, 6, 256) (1251, 6, 256) (1251, 6, 256) (1251, 6, 256) (1251, 6, 256) (1251, 6, 256) (1251, 6, 256) (1251, 6, 256) (1251, 6, 256) (1251, 6, 256) (1251, 6, 256) (1251, 6, 256) (1251, 6, 256) (1251, 6, 256) (1251, 6, 256) (1251, 6, 256) (1251, 6, 256) (1251, 6, 256) (1251, 6, 256) (1251, 6, 256) (1251, 6, 256) (1251, 6, 256) (1251, 6, 256) (1251, 6, 256) (1251, 6, 256) (1251, 6, 256) (1251, 6, 256) (1251, 6, 256) (1251, 6, 256) (1251, 6, 256) (1251, 6, 256) (1251, 6, 256) (1251, 6, 256) (1251, 6, 256) (1251, 6, 256) (1251, 6, 256) (1251, 6, 256) (1251, 6, 256) (1251, 6, 256) (1251, 6, 256) (1251, 6, 256) (1251, 6, 256) (1251, 6, 256) (1251, 6, 256) (1251, 6, 256) (1251, 6, 256) (1251, 6, 256) (1251, 6, 256) (1251, 6, 256) (1251, 6, 256) (1251, 6, 256) (1251, 6, 256) (1251, 6, 256) (1251, 6, 256) (1251, 6, 256) (1251, 6, 256) (1251, 6, 256) (1251, 6, 256) (1251, 6, 256) (1251, 6, 256) (1251, 6, 256) (1251, 6, 256) (1251, 6, 256) (1251, 6, 256) (1251, 6, 256) (1251, 6, 256) (1251, 6, 256) (1251, 6, 256) (1251, 6, 256) (0, 6, 256) (126, 3, 256) (126, 3, 256) (126, 3, 256) (126, 3, 256) (0, 3, 256) 
connections (connected_to_neuron, weight)=(0, 36466) (1, 36523) (2, 36467) (3, 36398) (4, 36348) (5, 267) (6, 238) (7, -1051) (8, -1179) (9, 404) (10, 302) (11, 36546) (12, 36463) (13, 36474) (14, 36426) (15, 497) (16, 523) (17, 432) (18, 449) (19, 655) (20, 156) (21, 54) (22, -117) (23, -71) (24, 102) (25, 46) (26, 83) (27, -249) (28, -59) (29, 56) (30, 82) (31, 184) (32, 69) (33, 198) (34, -135) (35, -39) (36, -225) (37, -29) (38, -404) (39, -553) (40, -1159) (41, -1811) (42, -96) (43, -135) (44, 70) (45, -57) (46, 504) (47, 616) (48, 36543) (49, 36475) (50, 36469) (51, 36396) (52, 36335) (53, 36560) (54, 36484) (55, 273) (56, -1015) (57, -1249) (58, 204) (59, 315) (60, -469) (61, 0) (62, 425) (63, 34) (64, 158) (65, 310) (66, 649) (67, -22) (68, 14) (69, 89) (70, 30) (71, 76) (72, 95) (73, 117) (74, -32) (75, -77) (76, -1) (77, 101) (78, -32) (79, -204) (80, -81) (81, 105) (82, 100) (83, -90) (84, -25) (85, -164) (86, -428) (87, -55) (88, -289) (89, -197) (90, -102) (91, -87) (92, 177) (93, 74) (94, -2670) (95, 103) (96, 574) (97, 463) (98, 478) (99, 36472) (100, 1314) (101, 1379) (102, 36440) (103, 36504) (104, 36467) (105, -2276) (106, -10019) (107, -254) (108, -644) (109, -513) (110, 120) (111, 141) (112, 24) (113, 332) (114, 317) (115, 34) (116, 297) (117, -55) (118, 44) (119, -19) (120, -69) (121, -70) (122, -96) (123, 112) (124, -122) (125, -83) (126, -30) (127, -6) (128, -30) (129, 19) (130, -135) (131, 168) (132, 16) (133, -9) (134, 266) (135, 142) (136, 162) (137, 21) (138, 124) (139, -19) (140, 55) (141, 39) (142, 115) (143, 204) (144, 39) (145, -73) (146, -209) (147, -400) (148, -188) (149, 36453) (150, 1353) (151, 1385) (152, 1252) (153, 36484) (154, -1973) (155, -4690) (156, -573) (157, -481) (158, -569) (159, 2) (160, -29) (161, -41) (162, 144) (163, 74) (164, 150) (165, -42) (166, -7) (167, 320) (168, 182) (169, 8) (170, -78) (171, -71) (172, -86) (173, 111) (174, -90) (175, -125) (176, 115) (177, -76) (178, -2) (179, -40) (180, -22) (181, 107) (182, 188) (183, 128) (184, -68) (185, 90) (186, 51) (187, 147) (188, 284) (189, 117) (190, 333) (191, -170) (192, 21) (193, -164) (194, 0) (195, -57) (196, -309) (197, -235) (198, -329) (199, -6224) (200, 1438) (201, 1228) (202, 1260) (203, 24) (204, -754) (205, -1259) (206, -533) (207, -623) (208, -264) (209, 81) (210, 118) (211, 63) (212, -24) (213, -118) (214, 38) (215, 68) (216, -45) (217, 24) (218, 123) (219, 134) (220, -6) (221, -109) (222, 102) (223, 119) (224, 115) (225, 22) (226, -93) (227, 95) (228, 9) (229, 68) (230, 236) (231, 195) (232, 51) (233, 118) (234, 127) (235, 180) (236, 70) (237, 184) (238, 202) (239, 56) (240, 180) (241, 85) (242, -14) (243, 87) (244, -343) (245, -498) (246, -273) (247, -271) (248, -355) (249, -6122) (250, 1258) (251, 1306) (252, 117) (253, -253) (254, -1180) (255, -224) (256, -419) (257, -102) (258, -147) (259, 113) (260, 142) (261, 80) (262, 250) (263, 86) (264, 64) (265, 196) (266, -28) (267, -1) (268, -51) (269, -25) (270, -6) (271, -131) (272, -57) (273, 30) (274, 132) (275, 0) (276, 122) (277, 58) (278, 99) (279, 114) (280, 136) (281, 163) (282, 154) (283, 96) (284, 132) (285, 93) (286, 75) (287, 113) (288, 149) (289, 16) (290, 69) (291, -20) (292, -113) (293, 86) (294, -19) (295, -3011) (296, -102) (297, -306) (298, -357) (299, 36362) (300, 1286) (301, 113) (302, 37) (303, -30) (304, -131) (305, -390) (306, -195) (307, -107) (308, 73) (309, -56) (310, -21) (311, 8) (312, 203) (313, 14) (314, 154) (315, 120) (316, 83) (317, 42) (318, 145) (319, 211) (320, 18) (321, -85) (322, -116) (323, -267) (324, -35) (325, -60) (326, 144) (327, 198) (328, 157) (329, 117) (330, 78) (331, 134) (332, 15) (333, 137) (334, 185) (335, 218) (336, 90) (337, 126) (338, 117) (339, 78) (340, 21) (341, 46) (342, 69) (343, -15) (344, -107) (345, -823) (346, -591) (347, -161) (348, -25) (349, 36309) (350, 1261) (351, 42) (352, -25) (353, 91) (354, -17) (355, -270) (356, 58) (357, -54) (358, 120) (359, 94) (360, -98) (361, -57) (362, 96) (363, -50) (364, 36) (365, 199) (366, 97) (367, 29) (368, 111) (369, 66) (370, 135) (371, 74) (372, -319) (373, -184) (374, -28) (375, 9) (376, -32) (377, 2) (378, 13) (379, 5) (380, 186) (381, 160) (382, 143) (383, 87) (384, 17) (385, 237) (386, 156) (387, 43) (388, -2) (389, 72) (390, 61) (391, 28) (392, 46) (393, 15) (394, -135) (395, 61) (396, -1365) (397, 141) (398, -50) (399, -71) (400, 1273) (401, 34) (402, 165) (403, -70) (404, -172) (405, 184) (406, 233) (407, 129) (408, 120) (409, 96) (410, 107) (411, -50) (412, 85) (413, -74) (414, 185) (415, 143) (416, 310) (417, 164) (418, 190) (419, 253) (420, 155) (421, -137) (422, -740) (423, -298) (424, -71) (425, -128) (426, -132) (427, -25) (428, 137) (429, 108) (430, 15) (431, 75) (432, -77) (433, 166) (434, 34) (435, 251) (436, 211) (437, 177) (438, -15) (439, 15) (440, -38) (441, 45) (442, 117) (443, -56) (444, -103) (445, -232) (446, -81) (447, 4) (448, 75) (449, -292) (450, 1274) (451, 236) (452, 41) (453, -19) (454, -73) (455, 231) (456, 189) (457, 71) (458, 109) (459, 160) (460, 104) (461, 46) (462, 40) (463, 53) (464, 133) (465, 131) (466, 72) (467, 130) (468, 103) (469, 128) (470, 142) (471, -160) (472, -202) (473, -343) (474, -301) (475, -343) (476, 24) (477, 57) (478, 39) (479, 103) (480, 11) (481, -389) (482, -179) (483, -15) (484, -32) (485, 226) (486, 125) (487, -23) (488, 133) (489, -63) (490, 133) (491, 148) (492, 193) (493, -137) (494, 63) (495, -211) (496, -172) (497, -34) (498, 11) (499, -223) (500, 1313) (501, 197) (502, 256) (503, -29) (504, -4) (505, 93) (506, 244) (507, 193) (508, 149) (509, -12) (510, -327) (511, 10) (512, -227) (513, 76) (514, 24) (515, 116) (516, -29) (517, 258) (518, 252) (519, -69) (520, 28) (521, -102) (522, -424) (523, -239) (524, -272) (525, -259) (526, -448) (527, -22) (528, -186) (529, -94) (530, 1) (531, -372) (532, -56) (533, 114) (534, 250) (535, 91) (536, -58) (537, -48) (538, 13) (539, -66) (540, 45) (541, 158) (542, -25) (543, -110) (544, -54) (545, 18) (546, -581) (547, -81) (548, -40) (549, -225) (550, 244) (551, 216) (552, 252) (553, -120) (554, 101) (555, 120) (556, 233) (557, 126) (558, -19) (559, -89) (560, -1087) (561, -157) (562, 53) (563, 86) (564, 71) (565, 42) (566, 80) (567, 173) (568, -98) (569, 96) (570, -23) (571, 1) (572, -185) (573, -122) (574, -201) (575, -372) (576, 8) (577, -108) (578, -252) (579, -26) (580, -18) (581, 10) (582, 112) (583, 114) (584, 26) (585, 13) (586, 89) (587, 123) (588, 37) (589, 113) (590, -89) (591, 52) (592, 6) (593, -181) (594, -108) (595, 53) (596, -525) (597, -163) (598, 67) (599, -359) (600, -738) (601, -37) (602, 247) (603, 137) (604, 144) (605, 170) (606, 42) (607, 205) (608, 35) (609, -282) (610, -1032) (611, -215) (612, 136) (613, 43) (614, -173) (615, -759) (616, -1270) (617, -4467) (618, -505) (619, 15) (620, 22) (621, -6) (622, -4) (623, -5) (624, 12) (625, 11) (626, 38) (627, -218) (628, -442) (629, -28) (630, 64) (631, -36) (632, -124) (633, -84) (634, 84) (635, -19) (636, 60) (637, 190) (638, 98) (639, -97) (640, 90) (641, 123) (642, -15) (643, -71) (644, -79) (645, 46) (646, -137) (647, -115) (648, -38) (649, -205) (650, -58) (651, 133) (652, 69) (653, 66) (654, 72) (655, 97) (656, 212) (657, 67) (658, -11) (659, 17) (660, 66) (661, -6) (662, 156) (663, -23) (664, -539) (665, -774) (666, -1221) (667, -1444) (668, -146) (669, -179) (670, 170) (671, 188) (672, 30) (673, -9) (674, -286) (675, 34) (676, 111) (677, -456) (678, -321) (679, 114) (680, -58) (681, -21) (682, 64) (683, 79) (684, 185) (685, -4) (686, 110) (687, 100) (688, 106) (689, 100) (690, -103) (691, -89) (692, -34) (693, -139) (694, 183) (695, 159) (696, -231) (697, 60) (698, -35) (699, -374) (700, 11) (701, 36) (702, 21) (703, 200) (704, -17) (705, 203) (706, 105) (707, -35) (708, -141) (709, 55) (710, -45) (711, 55) (712, 38) (713, -77) (714, 66) (715, -561) (716, -247) (717, -74) (718, 39) (719, 96) (720, -10) (721, 166) (722, -26) (723, 207) (724, 47) (725, -24) (726, 130) (727, -100) (728, -207) (729, 30) (730, 191) (731, 173) (732, 185) (733, 79) (734, 3) (735, 143) (736, 172) (737, -3) (738, 55) (739, 197) (740, -18) (741, 33) (742, -66) (743, 94) (744, 19) (745, -23) (746, -237) (747, -33) (748, 188) (749, -170) (750, -28) (751, -75) (752, 44) (753, 200) (754, 37) (755, 111) (756, 90) (757, 66) (758, -4) (759, -68) (760, 12) (761, -16) (762, 157) (763, 128) (764, 86) (765, 14) (766, 234) (767, 125) (768, 107) (769, 132) (770, 130) (771, 191) (772, 19) (773, 199) (774, -112) (775, 55) (776, 156) (777, -42) (778, 58) (779, 69) (780, 211) (781, 11) (782, 120) (783, 67) (784, 0) (785, 85) (786, 60) (787, 77) (788, 156) (789, 61) (790, -90) (791, 121) (792, 26) (793, -35) (794, 153) (795, 6) (796, 10) (797, -91) (798, 1107) (799, 408) (800, 294) (801, 174) (802, 185) (803, 101) (804, 247) (805, 71) (806, 80) (807, 212) (808, -156) (809, -41) (810, -197) (811, -60) (812, 85) (813, -52) (814, 24) (815, 15) (816, -51) (817, 101) (818, 15) (819, 120) (820, 49) (821, 147) (822, 60) (823, 34) (824, -6) (825, 111) (826, 69) (827, -51) (828, -16) (829, 90) (830, 176) (831, -20) (832, 24) (833, -45) (834, 130) (835, 248) (836, 185) (837, 118) (838, -1) (839, 52) (840, -71) (841, 140) (842, 143) (843, 151) (844, 48) (845, -85) (846, 158) (847, 195) (848, 481) (849, 36420) (850, 112) (851, 114) (852, 190) (853, 118) (854, 131) (855, 42) (856, 55) (857, -22) (858, -223) (859, 10) (860, -42) (861, -15) (862, -57) (863, -45) (864, -127) (865, 9) (866, 175) (867, -52) (868, 6) (869, -74) (870, 98) (871, 220) (872, 150) (873, 68) (874, 0) (875, 126) (876, 84) (877, 104) (878, 264) (879, 169) (880, 128) (881, -89) (882, 127) (883, 129) (884, 148) (885, 38) (886, -104) (887, 96) (888, 38) (889, 45) (890, 37) (891, -35) (892, 120) (893, 154) (894, 175) (895, -19) (896, -13) (897, 450) (898, 36317) (899, 36539) (900, 146) (901, 89) (902, 901) (903, 173) (904, 102) (905, 54) (906, -147) (907, -270) (908, -474) (909, 192) (910, -11) (911, -37) (912, -14) (913, 59) (914, 125) (915, -26) (916, 0) (917, 153) (918, 87) (919, 30) (920, 7) (921, 98) (922, 162) (923, -286) (924, -120) (925, 8) (926, 22) (927, -7) (928, 238) (929, 117) (930, 111) (931, -83) (932, -18) (933, 122) (934, 74) (935, -76) (936, -66) (937, 95) (938, 42) (939, 40) (940, 125) (941, 74) (942, -134) (943, 103) (944, 18) (945, 212) (946, -169) (947, 1162) (948, 36536) (949, 36347) (950, 62) (951, -19) (952, 79) (953, 224) (954, 163) (955, 49) (956, 80) (957, 67) (958, 49) (959, 32) (960, 26) (961, 115) (962, 57) (963, -1) (964, -77) (965, -64) (966, 107) (967, 147) (968, -10) (969, -64) (970, 128) (971, 126) (972, 134) (973, -47) (974, -408) (975, -44) (976, 154) (977, 29) (978, 168) (979, 180) (980, -44) (981, 9) (982, -63) (983, -183) (984, -184) (985, -235) (986, -188) (987, -197) (988, -164) (989, -112) (990, -196) (991, -1) (992, -154) (993, -147) (994, 165) (995, 51) (996, -244) (997, 36507) (998, 36556) (999, 36421) (1000, -6750) (1001, 164) (1002, 44) (1003, 459) (1004, 183) (1005, 87) (1006, 116) (1007, -18) (1008, 123) (1009, -31) (1010, 106) (1011, -57) (1012, -126) (1013, 175) (1014, 128) (1015, -14) (1016, 99) (1017, -65) (1018, 0) (1019, 157) (1020, 19) (1021, 127) (1022, 100) (1023, 57) (1024, 22) (1025, 8) (1026, -13) (1027, 158) (1028, 114) (1029, 191) (1030, 50) (1031, 148) (1032, -127) (1033, -193) (1034, -273) (1035, -233) (1036, -125) (1037, -184) (1038, 70) (1039, -106) (1040, 11) (1041, 54) (1042, 46) (1043, 117) (1044, -87) (1045, 114) (1046, 1176) (1047, 36453) (1048, 36514) (1049, 36356) (1050, 36327) (1051, 36529) (1052, 4342) (1053, 121) (1054, 37) (1055, 78) (1056, 150) (1057, -57) (1058, -58) (1059, -184) (1060, 164) (1061, 55) (1062, 83) (1063, -134) (1064, 24) (1065, 101) (1066, 83) (1067, 114) (1068, 101) (1069, 89) (1070, 164) (1071, 27) (1072, 15) (1073, -7) (1074, 10) (1075, -119) (1076, -138) (1077, 37) (1078, 53) (1079, -27) (1080, 147) (1081, -66) (1082, 44) (1083, -227) (1084, -124) (1085, -1274) (1086, -653) (1087, -295) (1088, -234) (1089, 10) (1090, 132) (1091, 82) (1092, 64) (1093, 3) (1094, 35) (1095, 557) (1096, 36515) (1097, 36443) (1098, 36512) (1099, 36321) (1100, 36448) (1101, 36425) (1102, 352) (1103, 4163) (1104, 117) (1105, 105) (1106, 62) (1107, -50) (1108, 91) (1109, 11) (1110, -52) (1111, 107) (1112, -40) (1113, -51) (1114, 104) (1115, 20) (1116, 59) (1117, -25) (1118, -56) (1119, -157) (1120, -92) (1121, 68) (1122, -151) (1123, -27) (1124, -83) (1125, 83) (1126, 22) (1127, 70) (1128, -54) (1129, -219) (1130, -194) (1131, -152) (1132, -3) (1133, -125) (1134, 22) (1135, -115) (1136, 58) (1137, -121) (1138, 7) (1139, 61) (1140, 4) (1141, -55) (1142, 8) (1143, -14) (1144, 2678) (1145, -164) (1146, 36422) (1147, 36546) (1148, 36357) (1149, 36429) (1150, 36394) (1151, 36397) (1152, 36521) (1153, 284) (1154, 4604) (1155, 148) (1156, -150) (1157, -128) (1158, -254) (1159, -351) (1160, -394) (1161, 66) (1162, -131) (1163, -119) (1164, -125) (1165, -3) (1166, -106) (1167, -127) (1168, -133) (1169, 77) (1170, 50) (1171, -71) (1172, -157) (1173, 109) (1174, 6) (1175, 257) (1176, 87) (1177, -77) (1178, 141) (1179, -104) (1180, -14) (1181, -5) (1182, 47) (1183, 68) (1184, 175) (1185, 90) (1186, 119) (1187, -13) (1188, -34) (1189, -7) (1190, 623) (1191, 520) (1192, 396) (1193, 1262) (1194, -272) (1195, -169) (1196, 36345) (1197, 36427) (1198, 36556) (1199, 36333) (1200, 36383) (1201, 36547) (1202, 36525) (1203, 36452) (1204, 36476) (1205, 1452) (1206, 35) (1207, -164) (1208, -222) (1209, -309) (1210, -175) (1211, 72) (1212, -125) (1213, 22) (1214, -82) (1215, 11) (1216, -70) (1217, 78) (1218, 90) (1219, 56) (1220, 37) (1221, -37) (1222, 268) (1223, 236) (1224, 281) (1225, 726) (1226, 2661) (1227, -77) (1228, -28) (1229, -106) (1230, -111) (1231, -40) (1232, 100) (1233, 111) (1234, 183) (1235, -48) (1236, -99) (1237, -70) (1238, -93) (1239, 124) (1240, -39) (1241, 2607) (1242, 2617) (1243, -203) (1244, -201) (1245, 36426) (1246, 36360) (1247, 36475) (1248, 36550) (1249, 36482) (1250, 9) (0, 36378) (1, 36373) (2, 36521) (3, 36318) (4, 36478) (5, -1095) (6, -1019) (7, 44) (8, -2) (9, 2158) (10, 2232) (11, 36504) (12, 36531) (13, 36468) (14, 36441) (15, -2486) (16, -2522) (17, -2475) (18, -2426) (19, -2513) (20, -1875) (21, -2588) (22, -2611) (23, 124) (24, 77) (25, -84) (26, 50) (27, 24) (28, 57) (29, 57) (30, 229) (31, 3) (32, 243) (33, 245) (34, 202) (35, 171) (36, 65) (37, 95) (38, -120) (39, 91) (40, 52) (41, 39) (42, 86) (43, -56) (44, 22) (45, -6) (46, 1080) (47, 1187) (48, 36339) (49, 36333) (50, 36347) (51, 36418) (52, 36468) (53, 36406) (54, 36395) (55, -1020) (56, 43) (57, 116) (58, 93) (59, 146) (60, 74) (61, 70) (62, 143) (63, 121) (64, 222) (65, 15) (66, -47) (67, 187) (68, 207) (69, 12) (70, 119) (71, 24) (72, 11) (73, 90) (74, 174) (75, 49) (76, 47) (77, 150) (78, 142) (79, 66) (80, 91) (81, -19) (82, 174) (83, 127) (84, 229) (85, 155) (86, -45) (87, 120) (88, 27) (89, -3) (90, 31) (91, -8) (92, 229) (93, 59) (94, -644) (95, -126) (96, 1080) (97, 972) (98, 1030) (99, 36313) (100, -419) (101, -427) (102, 36557) (103, 36513) (104, 36351) (105, 84) (106, -235) (107, 164) (108, 73) (109, 163) (110, 7) (111, 217) (112, 70) (113, 74) (114, 105) (115, -34) (116, -63) (117, 144) (118, -64) (119, 48) (120, 42) (121, 97) (122, 88) (123, -24) (124, 203) (125, 44) (126, 57) (127, 38) (128, 159) (129, 124) (130, 129) (131, -9) (132, 24) (133, 214) (134, -84) (135, -50) (136, 31) (137, 138) (138, 125) (139, -7) (140, 142) (141, 85) (142, 202) (143, 313) (144, 181) (145, -170) (146, 77) (147, 78) (148, 150) (149, 36425) (150, -514) (151, -277) (152, -272) (153, 36344) (154, -1296) (155, 73) (156, -42) (157, -353) (158, 27) (159, 111) (160, 54) (161, 199) (162, 161) (163, 95) (164, -48) (165, -37) (166, -34) (167, 159) (168, 130) (169, 118) (170, 75) (171, 204) (172, 152) (173, 215) (174, -15) (175, -34) (176, 35) (177, 205) (178, 194) (179, 70) (180, 57) (181, 13) (182, 238) (183, 198) (184, 109) (185, 202) (186, -55) (187, -69) (188, 190) (189, 120) (190, 128) (191, 177) (192, 213) (193, 88) (194, 255) (195, -65) (196, 129) (197, 297) (198, 230) (199, 351) (200, -495) (201, -387) (202, -413) (203, -1690) (204, -146) (205, -19) (206, -61) (207, 105) (208, 94) (209, -44) (210, 134) (211, 182) (212, 45) (213, 91) (214, 30) (215, 104) (216, 135) (217, 208) (218, 193) (219, -32) (220, 69) (221, 170) (222, 96) (223, 15) (224, 153) (225, 123) (226, 140) (227, 10) (228, 82) (229, -17) (230, 231) (231, 164) (232, 60) (233, 180) (234, -11) (235, 109) (236, 165) (237, -1) (238, 21) (239, 94) (240, 167) (241, 5) (242, 80) (243, 94) (244, 130) (245, -18) (246, -103) (247, -36) (248, 176) (249, 398) (250, -361) (251, -403) (252, -135) (253, -76) (254, -28) (255, -16) (256, 29) (257, 77) (258, 126) (259, 14) (260, 173) (261, 171) (262, -74) (263, 161) (264, -63) (265, -53) (266, -1) (267, 169) (268, -92) (269, 20) (270, 205) (271, 196) (272, 88) (273, 46) (274, 148) (275, 210) (276, 169) (277, 20) (278, 32) (279, 15) (280, 24) (281, 56) (282, 90) (283, 178) (284, -12) (285, 199) (286, 71) (287, 60) (288, 88) (289, -21) (290, 219) (291, 10) (292, 78) (293, 79) (294, 189) (295, 54) (296, -125) (297, 116) (298, 98) (299, 36486) (300, -439) (301, -156) (302, -28) (303, -497) (304, -54) (305, 62) (306, 84) (307, 160) (308, 232) (309, 158) (310, 108) (311, -71) (312, 75) (313, -12) (314, -4) (315, -4) (316, -33) (317, 146) (318, -25) (319, 214) (320, 93) (321, 98) (322, -31) (323, -41) (324, 80) (325, 45) (326, 151) (327, 142) (328, 78) (329, 104) (330, -27) (331, 130) (332, 272) (333, 271) (334, 53) (335, 173) (336, 208) (337, 3) (338, -45) (339, -65) (340, 62) (341, 52) (342, 197) (343, 10) (344, 12) (345, 46) (346, 160) (347, -58) (348, 18) (349, 36342) (350, -266) (351, -300) (352, -160) (353, -16) (354, -73) (355, 16) (356, 180) (357, 60) (358, 9) (359, -37) (360, 15) (361, 125) (362, 80) (363, 97) (364, 5) (365, -13) (366, 168) (367, 80) (368, 34) (369, 139) (370, 3) (371, 202) (372, 53) (373, 3) (374, 93) (375, 61) (376, 7) (377, 157) (378, -23) (379, 221) (380, 68) (381, 218) (382, 395) (383, 229) (384, 368) (385, 211) (386, 126) (387, 167) (388, 151) (389, 36) (390, -36) (391, 181) (392, 174) (393, 64) (394, -55) (395, 109) (396, 21) (397, 21) (398, -35) (399, 89) (400, -281) (401, -145) (402, -137) (403, -56) (404, 35) (405, 54) (406, 67) (407, 151) (408, 33) (409, 156) (410, 24) (411, 98) (412, 6) (413, -36) (414, 22) (415, 166) (416, 77) (417, 183) (418, 139) (419, 111) (420, 131) (421, 42) (422, -51) (423, 193) (424, 56) (425, 138) (426, 110) (427, 77) (428, 47) (429, 91) (430, 130) (431, 42) (432, 251) (433, 194) (434, 122) (435, 204) (436, 270) (437, 213) (438, -27) (439, 114) (440, 147) (441, 202) (442, 33) (443, 114) (444, 59) (445, -34) (446, 13) (447, 1) (448, 6) (449, -116) (450, -369) (451, -2447) (452, -53) (453, 121) (454, -67) (455, 269) (456, 163) (457, 110) (458, 77) (459, 85) (460, 111) (461, 173) (462, 39) (463, 114) (464, 30) (465, 149) (466, 52) (467, 49) (468, 205) (469, -26) (470, -4) (471, 137) (472, 26) (473, 138) (474, 66) (475, 188) (476, 42) (477, 41) (478, 60) (479, 60) (480, 199) (481, -70) (482, 153) (483, 115) (484, 8) (485, 101) (486, 61) (487, 170) (488, 204) (489, 111) (490, 139) (491, -19) (492, 21) (493, 165) (494, 198) (495, 108) (496, -73) (497, 133) (498, -65) (499, -161) (500, -357) (501, -49) (502, 98) (503, 87) (504, 209) (505, 63) (506, 154) (507, 73) (508, -5) (509, 80) (510, 50) (511, 39) (512, 137) (513, 23) (514, 109) (515, -44) (516, 130) (517, -5) (518, 163) (519, -26) (520, 229) (521, 151) (522, 109) (523, 218) (524, 207) (525, 225) (526, 162) (527, 100) (528, -74) (529, 57) (530, 52) (531, 28) (532, 76) (533, 139) (534, 232) (535, 212) (536, 119) (537, 169) (538, 209) (539, 8) (540, 213) (541, 11) (542, 190) (543, -22) (544, 89) (545, -29) (546, -42) (547, 28) (548, 65) (549, -141) (550, -449) (551, -13) (552, -100) (553, -36) (554, 161) (555, 122) (556, 106) (557, -21) (558, 67) (559, -2) (560, 209) (561, -93) (562, 205) (563, -126) (564, -158) (565, -420) (566, 21) (567, -41) (568, -13) (569, 194) (570, 193) (571, 124) (572, 96) (573, 3) (574, -12) (575, 191) (576, 165) (577, 94) (578, 134) (579, 43) (580, 190) (581, 137) (582, 5) (583, 148) (584, 196) (585, 156) (586, 65) (587, 169) (588, 135) (589, -16) (590, 112) (591, -10) (592, 0) (593, 111) (594, 142) (595, 178) (596, -36) (597, 2) (598, 24) (599, -168) (600, -541) (601, -143) (602, 91) (603, 119) (604, 204) (605, 135) (606, 26) (607, 191) (608, 214) (609, 77) (610, 80) (611, 157) (612, 27) (613, -120) (614, -214) (615, -164) (616, -299) (617, -103) (618, 194) (619, 43) (620, 53) (621, 221) (622, 166) (623, 127) (624, 54) (625, 21) (626, 150) (627, 140) (628, 213) (629, 193) (630, 55) (631, 102) (632, 106) (633, 205) (634, 73) (635, 56) (636, 12) (637, 30) (638, 52) (639, 159) (640, 209) (641, 28) (642, 210) (643, 79) (644, -4) (645, 186) (646, -14) (647, -198) (648, 10) (649, -280) (650, -58) (651, 57) (652, -40) (653, 33) (654, 28) (655, 150) (656, 56) (657, 35) (658, 190) (659, 28) (660, 109) (661, -41) (662, -107) (663, -146) (664, -166) (665, -414) (666, -168) (667, 41) (668, 165) (669, 31) (670, 32) (671, 34) (672, 174) (673, 19) (674, 231) (675, 134) (676, 119) (677, 56) (678, 40) (679, 214) (680, 130) (681, 230) (682, -19) (683, -20) (684, 196) (685, -32) (686, 47) (687, 201) (688, 50) (689, -11) (690, 72) (691, 177) (692, 61) (693, 25) (694, 82) (695, 136) (696, -161) (697, -288) (698, 158) (699, -219) (700, -12) (701, 122) (702, 38) (703, -48) (704, 86) (705, -30) (706, -13) (707, 113) (708, 43) (709, 85) (710, 159) (711, 52) (712, 38) (713, 143) (714, -37) (715, -12) (716, 91) (717, 64) (718, 34) (719, 210) (720, 88) (721, 59) (722, 108) (723, 237) (724, 127) (725, 66) (726, 165) (727, 59) (728, 61) (729, 32) (730, -8) (731, 23) (732, 42) (733, 73) (734, -33) (735, 51) (736, 33) (737, -30) (738, -68) (739, 125) (740, 64) (741, 189) (742, 22) (743, 91) (744, 29) (745, 150) (746, -92) (747, -92) (748, 93) (749, -49) (750, 75) (751, 87) (752, -17) (753, -90) (754, 139) (755, -12) (756, 45) (757, -19) (758, 205) (759, 81) (760, 93) (761, 70) (762, 158) (763, 84) (764, -88) (765, -85) (766, -56) (767, 204) (768, 140) (769, -27) (770, 115) (771, 27) (772, 2) (773, 115) (774, -19) (775, 59) (776, 59) (777, 151) (778, 109) (779, 74) (780, 103) (781, 141) (782, 181) (783, 45) (784, 81) (785, 4) (786, 157) (787, 3) (788, -22) (789, 119) (790, 115) (791, 96) (792, 221) (793, 229) (794, 9) (795, 76) (796, 76) (797, -88) (798, 156) (799, 318) (800, 102) (801, 103) (802, -37) (803, 60) (804, 105) (805, 204) (806, 189) (807, 26) (808, -18) (809, 50) (810, 0) (811, 80) (812, 43) (813, 63) (814, -94) (815, 31) (816, 117) (817, -14) (818, 146) (819, 124) (820, 116) (821, 68) (822, 143) (823, 10) (824, -37) (825, 70) (826, -20) (827, 117) (828, 145) (829, 24) (830, 1) (831, 160) (832, 116) (833, 2) (834, 73) (835, 121) (836, -47) (837, 198) (838, -10) (839, 135) (840, -47) (841, 49) (842, 236) (843, 237) (844, -22) (845, -13) (846, 46) (847, -64) (848, 436) (849, 36403) (850, 226) (851, 265) (852, 173) (853, 125) (854, 94) (855, 115) (856, 169) (857, 101) (858, 215) (859, -4) (860, 24) (861, 37) (862, 97) (863, 64) (864, -83) (865, 13) (866, 174) (867, 26) (868, 49) (869, 36) (870, 102) (871, 79) (872, 53) (873, 73) (874, 1) (875, 100) (876, 164) (877, -23) (878, -7) (879, 200) (880, 115) (881, 21) (882, 100) (883, 31) (884, 55) (885, -15) (886, 68) (887, 153) (888, 166) (889, -13) (890, -72) (891, -14) (892, 165) (893, 105) (894, 26) (895, -96) (896, -72) (897, -904) (898, 36504) (899, 36362) (900, 38) (901, 387) (902, 302) (903, 256) (904, 233) (905, 203) (906, 125) (907, 206) (908, 86) (909, 80) (910, 130) (911, 103) (912, -23) (913, -68) (914, 112) (915, 106) (916, 171) (917, 193) (918, 232) (919, 124) (920, 21) (921, 60) (922, 31) (923, 155) (924, -11) (925, 108) (926, 48) (927, 65) (928, 27) (929, -10) (930, 31) (931, 151) (932, -12) (933, 59) (934, -26) (935, 0) (936, 28) (937, -39) (938, -18) (939, 190) (940, 215) (941, 150) (942, 260) (943, 251) (944, 161) (945, 169) (946, -79) (947, -6115) (948, 36516) (949, 36558) (950, 130) (951, 356) (952, 239) (953, 182) (954, 90) (955, -19) (956, 122) (957, 39) (958, 151) (959, -35) (960, 170) (961, 181) (962, 47) (963, -6) (964, 156) (965, -48) (966, -81) (967, -47) (968, 80) (969, 18) (970, -41) (971, 16) (972, 88) (973, 244) (974, 44) (975, 99) (976, 18) (977, 15) (978, -31) (979, 70) (980, 67) (981, 110) (982, 27) (983, 149) (984, 74) (985, 184) (986, 36) (987, 186) (988, 93) (989, 201) (990, 4) (991, 163) (992, 125) (993, 108) (994, 198) (995, 172) (996, 30) (997, 36431) (998, 36385) (999, 36410) (1000, -2610) (1001, 247) (1002, 371) (1003, 274) (1004, 292) (1005, 238) (1006, 170) (1007, 61) (1008, 176) (1009, 50) (1010, 171) (1011, 151) (1012, 184) (1013, 210) (1014, 97) (1015, 9) (1016, 191) (1017, 2) (1018, 76) (1019, -21) (1020, 196) (1021, 35) (1022, -35) (1023, 12) (1024, -18) (1025, 51) (1026, 152) (1027, 25) (1028, 94) (1029, 150) (1030, 141) (1031, 51) (1032, 0) (1033, 146) (1034, 51) (1035, 208) (1036, -18) (1037, -47) (1038, 62) (1039, 181) (1040, 90) (1041, 10) (1042, 82) (1043, 184) (1044, 23) (1045, 152) (1046, -6172) (1047, 36395) (1048, 36393) (1049, 36437) (1050, 36435) (1051, 36488) (1052, 61) (1053, 543) (1054, 151) (1055, 249) (1056, 258) (1057, 83) (1058, -9) (1059, 3) (1060, 185) (1061, 149) (1062, 118) (1063, 108) (1064, 56) (1065, 245) (1066, 163) (1067, 83) (1068, 1) (1069, 167) (1070, 192) (1071, 178) (1072, 169) (1073, 57) (1074, 154) (1075, 76) (1076, -25) (1077, 103) (1078, 63) (1079, -41) (1080, -65) (1081, 23) (1082, -67) (1083, 222) (1084, 201) (1085, -104) (1086, 91) (1087, 34) (1088, 148) (1089, -46) (1090, 139) (1091, 97) (1092, 128) (1093, 195) (1094, 186) (1095, 105) (1096, 36344) (1097, 36415) (1098, 36562) (1099, 36477) (1100, 36372) (1101, 36553) (1102, -444) (1103, 304) (1104, 337) (1105, 293) (1106, 110) (1107, 66) (1108, 71) (1109, 2) (1110, 171) (1111, 134) (1112, 49) (1113, 51) (1114, 162) (1115, 192) (1116, 23) (1117, -45) (1118, 17) (1119, 139) (1120, -45) (1121, 106) (1122, -12) (1123, 29) (1124, 101) (1125, -17) (1126, -30) (1127, 29) (1128, 53) (1129, 97) (1130, 127) (1131, 126) (1132, 106) (1133, 152) (1134, -32) (1135, 27) (1136, -30) (1137, -17) (1138, 143) (1139, -24) (1140, 69) (1141, -52) (1142, 45) (1143, 130) (1144, 107) (1145, 994) (1146, 36527) (1147, 36409) (1148, 36318) (1149, 36491) (1150, 36343) (1151, 36358) (1152, 36437) (1153, -438) (1154, 514) (1155, 287) (1156, 154) (1157, 155) (1158, 33) (1159, -4) (1160, -12) (1161, 23) (1162, 52) (1163, -74) (1164, -57) (1165, 10) (1166, -120) (1167, 9) (1168, 31) (1169, 102) (1170, 58) (1171, -61) (1172, -133) (1173, -346) (1174, -244) (1175, -37) (1176, -133) (1177, -51) (1178, -128) (1179, 28) (1180, 103) (1181, 54) (1182, -80) (1183, 24) (1184, -86) (1185, 131) (1186, 106) (1187, -80) (1188, -53) (1189, 94) (1190, 32) (1191, 161) (1192, 309) (1193, 273) (1194, 1196) (1195, 979) (1196, 36365) (1197, 36498) (1198, 36426) (1199, 36458) (1200, 36468) (1201, 36547) (1202, 36352) (1203, 36335) (1204, 36428) (1205, 1023) (1206, 190) (1207, -83) (1208, -96) (1209, -141) (1210, 40) (1211, -26) (1212, 24) (1213, 131) (1214, 29) (1215, 32) (1216, 66) (1217, 65) (1218, -35) (1219, -966) (1220, -976) (1221, -981) (1222, -1044) (1223, -1205) (1224, -394) (1225, -523) (1226, -289) (1227, -575) (1228, -1013) (1229, -68) (1230, -77) (1231, -20) (1232, -167) (1233, 50) (1234, 51) (1235, 96) (1236, -11) (1237, 13) (1238, -23) (1239, 211) (1240, 27) (1241, 290) (1242, 6316) (1243, 1057) (1244, 1072) (1245, 36465) (1246, 36460) (1247, 36558) (1248, 36542) (1249, 36360) (1250, -38) (0, 36353) (1, 36536) (2, 36502) (3, 36470) (4, 36449) (5, -14997) (6, -14986) (7, -779) (8, -902) (9, 360) (10, 283) (11, 36317) (12, 36349) (13, 36504) (14, 36449) (15, 92) (16, 60) (17, 96) (18, 180) (19, 218) (20, -296) (21, -87) (22, 38) (23, 71) (24, 161) (25, 153) (26, 160) (27, 29) (28, 191) (29, 167) (30, 8) (31, 78) (32, 101) (33, 214) (34, 178) (35, 107) (36, 55) (37, 119) (38, 46) (39, -1014) (40, -344) (41, -125) (42, -766) (43, -126) (44, -103) (45, -148) (46, 1380) (47, 1259) (48, 36542) (49, 36418) (50, 36375) (51, 36476) (52, 36351) (53, 36549) (54, 36321) (55, -14973) (56, -562) (57, -424) (58, -274) (59, 77) (60, 28) (61, -26) (62, -11) (63, 223) (64, 29) (65, 42) (66, -12) (67, -62) (68, -33) (69, -2) (70, 139) (71, 10) (72, 66) (73, 132) (74, 0) (75, -130) (76, 114) (77, -88) (78, 70) (79, -64) (80, 49) (81, 95) (82, 34) (83, -59) (84, 54) (85, 142) (86, 64) (87, 177) (88, 48) (89, -215) (90, -188) (91, -90) (92, 37) (93, 49) (94, -1113) (95, -300) (96, 1262) (97, 1360) (98, 1305) (99, 36343) (100, -588) (101, -617) (102, 36382) (103, 36435) (104, 36418) (105, -6443) (106, -415) (107, -477) (108, -568) (109, -146) (110, 204) (111, 18) (112, 8) (113, 88) (114, 70) (115, 148) (116, 142) (117, 76) (118, 5) (119, -74) (120, 109) (121, 106) (122, 47) (123, 54) (124, 38) (125, 40) (126, -64) (127, 90) (128, 13) (129, 30) (130, -96) (131, -81) (132, 69) (133, -65) (134, -51) (135, 133) (136, -11) (137, 61) (138, 78) (139, 114) (140, -65) (141, -83) (142, -53) (143, 79) (144, -4) (145, -153) (146, -166) (147, -199) (148, -173) (149, 36469) (150, -554) (151, -610) (152, -593) (153, 36378) (154, -718) (155, -799) (156, -399) (157, -615) (158, -60) (159, -177) (160, -106) (161, 138) (162, -89) (163, 116) (164, 96) (165, 205) (166, 4) (167, 88) (168, 60) (169, -26) (170, -38) (171, -43) (172, 159) (173, 111) (174, -51) (175, -110) (176, 32) (177, -61) (178, 56) (179, -46) (180, -25) (181, 81) (182, 108) (183, 120) (184, -54) (185, 7) (186, 88) (187, -2) (188, 114) (189, 51) (190, 173) (191, 104) (192, -14) (193, -121) (194, -112) (195, -13) (196, -71) (197, -153) (198, -91) (199, -603) (200, -477) (201, -628) (202, -392) (203, -182) (204, -430) (205, -1240) (206, -538) (207, -280) (208, -105) (209, -87) (210, 116) (211, 35) (212, -8) (213, 137) (214, 25) (215, 84) (216, -91) (217, -88) (218, -94) (219, 110) (220, -36) (221, -62) (222, 7) (223, -48) (224, -55) (225, -24) (226, 51) (227, 78) (228, 138) (229, 97) (230, -16) (231, 195) (232, 100) (233, 39) (234, 20) (235, -24) (236, 20) (237, 130) (238, 80) (239, 135) (240, -81) (241, 79) (242, 80) (243, -101) (244, -27) (245, -140) (246, -97) (247, 44) (248, -81) (249, -515) (250, -588) (251, -493) (252, 130) (253, -882) (254, -1272) (255, -115) (256, -39) (257, -129) (258, -114) (259, -14) (260, 7) (261, -81) (262, 148) (263, -66) (264, 62) (265, -37) (266, 36) (267, -87) (268, -159) (269, 153) (270, 141) (271, -50) (272, -196) (273, 93) (274, 73) (275, 140) (276, -9) (277, 281) (278, 471) (279, 118) (280, 245) (281, 8) (282, 81) (283, -16) (284, 200) (285, 34) (286, 86) (287, 4) (288, -66) (289, 161) (290, 40) (291, 97) (292, 141) (293, 152) (294, -21) (295, -675) (296, 3) (297, 18) (298, 34) (299, 36539) (300, -554) (301, 104) (302, 183) (303, -191) (304, 20) (305, -156) (306, -160) (307, -167) (308, -20) (309, 137) (310, -22) (311, 20) (312, 18) (313, 161) (314, -13) (315, 49) (316, -23) (317, 214) (318, 86) (319, 127) (320, 13) (321, -129) (322, 13) (323, 54) (324, 194) (325, -68) (326, 47) (327, -25) (328, 239) (329, 147) (330, 247) (331, -22) (332, 17) (333, 263) (334, 61) (335, 123) (336, 100) (337, 189) (338, 162) (339, 48) (340, 144) (341, 21) (342, -65) (343, 88) (344, -5) (345, -232) (346, -590) (347, 154) (348, 118) (349, 36313) (350, -527) (351, 182) (352, -33) (353, 101) (354, -103) (355, -108) (356, -11) (357, -175) (358, 87) (359, 81) (360, 155) (361, -54) (362, 53) (363, 20) (364, -62) (365, 190) (366, 21) (367, 178) (368, 119) (369, 230) (370, -20) (371, 62) (372, 115) (373, 94) (374, 52) (375, -7) (376, 75) (377, 31) (378, 276) (379, 94) (380, 48) (381, 10) (382, 97) (383, 435) (384, 176) (385, 118) (386, 99) (387, 170) (388, -83) (389, 7) (390, -66) (391, 138) (392, 97) (393, -21) (394, 144) (395, -71) (396, -559) (397, -40) (398, 223) (399, 213) (400, -614) (401, 58) (402, 237) (403, 40) (404, -56) (405, -94) (406, -104) (407, 47) (408, 191) (409, 81) (410, 129) (411, 99) (412, 83) (413, 28) (414, 26) (415, 111) (416, 45) (417, 115) (418, 103) (419, 326) (420, 151) (421, 235) (422, -145) (423, 72) (424, 159) (425, 122) (426, 138) (427, 279) (428, -12) (429, 36) (430, 155) (431, 150) (432, -101) (433, 284) (434, 236) (435, 242) (436, 210) (437, 20) (438, -38) (439, -76) (440, 31) (441, 133) (442, 96) (443, 147) (444, 121) (445, 15) (446, -392) (447, -20) (448, 126) (449, -126) (450, -468) (451, -315) (452, 196) (453, 29) (454, 137) (455, -175) (456, 163) (457, 60) (458, 177) (459, 70) (460, 192) (461, -107) (462, 46) (463, 2) (464, -21) (465, 173) (466, 45) (467, 92) (468, 158) (469, 247) (470, 28) (471, 121) (472, 13) (473, -26) (474, -34) (475, -26) (476, 47) (477, 101) (478, 9) (479, -75) (480, -113) (481, -228) (482, 159) (483, 99) (484, 184) (485, 78) (486, 217) (487, 221) (488, 106) (489, -74) (490, -21) (491, 63) (492, 147) (493, 46) (494, 182) (495, -97) (496, -101) (497, 49) (498, 177) (499, -185) (500, -391) (501, 244) (502, 91) (503, 117) (504, 97) (505, -83) (506, -18) (507, -21) (508, -42) (509, 97) (510, 12) (511, 18) (512, 44) (513, 203) (514, 185) (515, 83) (516, 111) (517, 249) (518, 296) (519, 251) (520, 0) (521, 126) (522, 89) (523, -139) (524, -88) (525, 76) (526, 24) (527, 30) (528, 28) (529, -154) (530, 30) (531, -4) (532, 49) (533, 17) (534, 271) (535, 61) (536, 223) (537, 43) (538, -64) (539, 57) (540, -57) (541, 64) (542, 79) (543, 171) (544, 133) (545, 179) (546, -162) (547, -140) (548, 38) (549, 51) (550, -325) (551, 40) (552, -37) (553, -68) (554, 32) (555, 143) (556, 85) (557, 62) (558, 30) (559, 74) (560, 81) (561, -119) (562, 166) (563, 221) (564, 33) (565, 58) (566, 227) (567, 84) (568, 27) (569, 15) (570, 50) (571, -71) (572, 89) (573, 79) (574, 82) (575, 102) (576, 96) (577, 98) (578, 169) (579, 197) (580, 113) (581, 29) (582, 216) (583, 195) (584, 131) (585, 172) (586, 108) (587, 64) (588, -18) (589, 150) (590, -22) (591, 83) (592, 89) (593, -41) (594, 39) (595, 159) (596, -326) (597, -113) (598, -5) (599, -67) (600, -599) (601, 41) (602, 21) (603, -176) (604, -68) (605, 65) (606, -30) (607, 120) (608, 122) (609, 155) (610, 27) (611, 63) (612, 135) (613, 32) (614, 9) (615, 124) (616, 160) (617, -2047) (618, -841) (619, 40) (620, 155) (621, 300) (622, 170) (623, 7) (624, -26) (625, 48) (626, 84) (627, 1) (628, 29) (629, -47) (630, 189) (631, 6) (632, 100) (633, 126) (634, 27) (635, 172) (636, 121) (637, 165) (638, 94) (639, 138) (640, -97) (641, 28) (642, 196) (643, -21) (644, 131) (645, 81) (646, -265) (647, -77) (648, -6) (649, 131) (650, -74) (651, 6) (652, 155) (653, -120) (654, 41) (655, 11) (656, -6) (657, 24) (658, -31) (659, -4) (660, 89) (661, 3) (662, 198) (663, 65) (664, 99) (665, 41) (666, -2425) (667, -315) (668, -10) (669, -4) (670, 181) (671, 121) (672, 220) (673, 119) (674, 180) (675, 20) (676, 66) (677, 92) (678, 189) (679, 87) (680, 2) (681, 45) (682, 138) (683, 14) (684, 60) (685, 25) (686, 77) (687, 56) (688, 20) (689, 111) (690, 85) (691, 96) (692, 49) (693, 103) (694, 105) (695, -14) (696, -270) (697, -113) (698, -67) (699, 19) (700, -40) (701, -47) (702, 25) (703, -109) (704, 53) (705, 21) (706, 51) (707, 160) (708, 127) (709, 260) (710, 212) (711, -8) (712, 115) (713, 163) (714, 39) (715, 145) (716, 158) (717, 169) (718, -3) (719, 26) (720, -5) (721, 247) (722, 88) (723, 105) (724, 138) (725, 164) (726, 60) (727, 112) (728, -12) (729, 160) (730, 29) (731, 170) (732, 0) (733, 91) (734, -18) (735, 137) (736, 36) (737, 118) (738, 93) (739, -9) (740, 40) (741, -52) (742, -12) (743, -74) (744, 48) (745, 154) (746, -333) (747, -121) (748, 28) (749, 54) (750, 63) (751, -30) (752, 78) (753, 64) (754, -40) (755, -42) (756, -68) (757, 1) (758, -17) (759, 54) (760, 166) (761, 180) (762, 37) (763, 115) (764, 131) (765, 162) (766, 115) (767, -5) (768, 202) (769, 160) (770, 132) (771, 67) (772, 71) (773, 127) (774, 53) (775, -49) (776, 1) (777, -54) (778, 28) (779, 157) (780, 64) (781, -8) (782, 1) (783, -60) (784, 135) (785, 70) (786, 159) (787, 195) (788, 15) (789, 55) (790, 30) (791, 114) (792, 28) (793, 147) (794, 178) (795, 101) (796, -101) (797, -13) (798, 369) (799, 230) (800, 265) (801, 235) (802, 228) (803, 16) (804, 25) (805, -39) (806, 111) (807, 88) (808, 59) (809, 252) (810, 185) (811, 191) (812, 101) (813, -53) (814, 226) (815, 150) (816, 59) (817, 39) (818, -42) (819, 19) (820, 118) (821, 2) (822, 194) (823, 155) (824, 2) (825, 155) (826, 125) (827, 12) (828, 150) (829, 60) (830, 41) (831, -31) (832, -73) (833, 13) (834, 89) (835, -9) (836, 21) (837, -9) (838, 1) (839, 34) (840, 97) (841, 123) (842, 26) (843, -60) (844, 149) (845, 60) (846, 185) (847, 53) (848, 377) (849, 36437) (850, -8) (851, 114) (852, 132) (853, -58) (854, -11) (855, 126) (856, 128) (857, -80) (858, 102) (859, 252) (860, 222) (861, 151) (862, 76) (863, 197) (864, -15) (865, 55) (866, 34) (867, 150) (868, 162) (869, 91) (870, 38) (871, 20) (872, -30) (873, -91) (874, 48) (875, 35) (876, 71) (877, 156) (878, -70) (879, 79) (880, 136) (881, -6) (882, -99) (883, -19) (884, 121) (885, 20) (886, 29) (887, 28) (888, 60) (889, 68) (890, -108) (891, -54) (892, 117) (893, -10) (894, 40) (895, -24) (896, 125) (897, 281) (898, 36485) (899, 36372) (900, 9) (901, 230) (902, 179) (903, 103) (904, 103) (905, 50) (906, 143) (907, -169) (908, -170) (909, 59) (910, -153) (911, -38) (912, 27) (913, 38) (914, 68) (915, 143) (916, 20) (917, 191) (918, 36) (919, 58) (920, -39) (921, -2) (922, -102) (923, -139) (924, -132) (925, 106) (926, 100) (927, 60) (928, -97) (929, 135) (930, -134) (931, 104) (932, 10) (933, 34) (934, 65) (935, 68) (936, -115) (937, -38) (938, 61) (939, 148) (940, 163) (941, -47) (942, -24) (943, -42) (944, 21) (945, -52) (946, 67) (947, 246) (948, 36484) (949, 36417) (950, 109) (951, 113) (952, 105) (953, 163) (954, 99) (955, 15) (956, 129) (957, 85) (958, -77) (959, 14) (960, 69) (961, -42) (962, -167) (963, 73) (964, 36) (965, 54) (966, 55) (967, 17) (968, 85) (969, 96) (970, -20) (971, -62) (972, -150) (973, 54) (974, 30) (975, -93) (976, 147) (977, 12) (978, 77) (979, 6) (980, -10) (981, 164) (982, -15) (983, 13) (984, -5) (985, -257) (986, -58) (987, -436) (988, -88) (989, -154) (990, -57) (991, 146) (992, 101) (993, -14) (994, 29) (995, -82) (996, -198) (997, 36355) (998, 36462) (999, 36325) (1000, -1105) (1001, 73) (1002, 19) (1003, 231) (1004, 196) (1005, 95) (1006, 38) (1007, 6) (1008, -264) (1009, 35) (1010, 64) (1011, -151) (1012, 53) (1013, -156) (1014, -104) (1015, -64) (1016, -179) (1017, 46) (1018, -76) (1019, 2) (1020, -78) (1021, 10) (1022, -19) (1023, -37) (1024, -227) (1025, -121) (1026, 113) (1027, 96) (1028, 14) (1029, 43) (1030, 15) (1031, -31) (1032, -37) (1033, 53) (1034, 38) (1035, -322) (1036, -243) (1037, -602) (1038, -533) (1039, 15) (1040, -8) (1041, 132) (1042, 125) (1043, -22) (1044, 97) (1045, 66) (1046, 244) (1047, 36368) (1048, 36507) (1049, 36408) (1050, 36308) (1051, 36520) (1052, 1770) (1053, 184) (1054, -23) (1055, -40) (1056, -122) (1057, -61) (1058, -50) (1059, -268) (1060, -128) (1061, -92) (1062, 2) (1063, -21) (1064, -59) (1065, -178) (1066, -178) (1067, -65) (1068, 51) (1069, 67) (1070, -3) (1071, 151) (1072, 12) (1073, -112) (1074, -17) (1075, -5) (1076, 78) (1077, 146) (1078, 114) (1079, 190) (1080, -24) (1081, 106) (1082, 154) (1083, 68) (1084, 143) (1085, -199) (1086, -201) (1087, 23) (1088, -33) (1089, -28) (1090, 23) (1091, -67) (1092, -44) (1093, 119) (1094, 83) (1095, 236) (1096, 36534) (1097, 36409) (1098, 36468) (1099, 36353) (1100, 36464) (1101, 36327) (1102, 1347) (1103, 1638) (1104, 158) (1105, -181) (1106, -33) (1107, -165) (1108, 23) (1109, -54) (1110, 9) (1111, -111) (1112, -93) (1113, -106) (1114, -187) (1115, -66) (1116, -137) (1117, -223) (1118, -130) (1119, -194) (1120, -168) (1121, -25) (1122, -208) (1123, -46) (1124, -181) (1125, -107) (1126, 152) (1127, -73) (1128, -95) (1129, 122) (1130, -23) (1131, 99) (1132, 90) (1133, 36) (1134, -128) (1135, -9) (1136, -63) (1137, -37) (1138, 44) (1139, 163) (1140, 109) (1141, 144) (1142, 2) (1143, 25) (1144, 564) (1145, -163) (1146, 36527) (1147, 36389) (1148, 36504) (1149, 36494) (1150, 36312) (1151, 36532) (1152, 36532) (1153, 1208) (1154, 2851) (1155, 357) (1156, 98) (1157, 101) (1158, 41) (1159, -159) (1160, -127) (1161, -129) (1162, -101) (1163, -6) (1164, -130) (1165, -141) (1166, -169) (1167, -18) (1168, -101) (1169, 7) (1170, -234) (1171, -57) (1172, -368) (1173, -420) (1174, -256) (1175, 77) (1176, 126) (1177, 126) (1178, 23) (1179, 83) (1180, -49) (1181, -16) (1182, 140) (1183, -54) (1184, 183) (1185, 121) (1186, 32) (1187, 88) (1188, -12) (1189, 14) (1190, 200) (1191, 196) (1192, -28) (1193, 135) (1194, 10) (1195, -80) (1196, 36427) (1197, 36344) (1198, 36368) (1199, 36528) (1200, 36554) (1201, 36345) (1202, 36398) (1203, 36366) (1204, 36372) (1205, 3250) (1206, 242) (1207, 132) (1208, -45) (1209, -96) (1210, 5) (1211, -31) (1212, -190) (1213, -113) (1214, -184) (1215, -38) (1216, -107) (1217, -38) (1218, 10) (1219, -91) (1220, -186) (1221, -183) (1222, 305) (1223, 177) (1224, 126) (1225, 253) (1226, 243) (1227, -156) (1228, -167) (1229, -41) (1230, -19) (1231, 53) (1232, -1) (1233, 61) (1234, 100) (1235, -54) (1236, -11) (1237, 98) (1238, 146) (1239, 71) (1240, 179) (1241, 509) (1242, 556) (1243, -80) (1244, -122) (1245, 36313) (1246, 36431) (1247, 36552) (1248, 36463) (1249, 36346) (1250, -112) (0, 36391) (1, 36325) (2, 36351) (3, 36470) (4, 36347) (5, 565) (6, 575) (7, -71) (8, 34) (9, -48) (10, 1) (11, 36499) (12, 36448) (13, 36344) (14, 36346) (15, 15186) (16, 15173) (17, 15191) (18, 15078) (19, 15074) (20, 63) (21, 476) (22, 2847) (23, 77) (24, 149) (25, -27) (26, -68) (27, -40) (28, 64) (29, 86) (30, -158) (31, -78) (32, -102) (33, -39) (34, -140) (35, -86) (36, 37) (37, -211) (38, -13) (39, -130) (40, -183) (41, 53) (42, 213) (43, 296) (44, 265) (45, 349) (46, -1176) (47, -1179) (48, 36527) (49, 36556) (50, 36338) (51, 36460) (52, 36465) (53, 36559) (54, 36538) (55, 576) (56, 130) (57, -135) (58, -104) (59, 63) (60, 24) (61, 29) (62, -112) (63, 31) (64, 156) (65, 103) (66, 146) (67, 30) (68, -52) (69, 128) (70, 205) (71, 122) (72, 90) (73, 8) (74, 33) (75, -78) (76, 101) (77, -118) (78, -114) (79, 35) (80, -58) (81, 2) (82, -137) (83, -20) (84, -16) (85, -115) (86, 68) (87, 96) (88, 70) (89, -27) (90, -181) (91, 79) (92, 38) (93, 98) (94, 815) (95, 279) (96, -1190) (97, -1341) (98, -1320) (99, 36357) (100, 3585) (101, 3569) (102, 36465) (103, 36543) (104, 36462) (105, -113) (106, -63) (107, 121) (108, -16) (109, 102) (110, 169) (111, -17) (112, -20) (113, 102) (114, -41) (115, 77) (116, 22) (117, -41) (118, -5) (119, 74) (120, 67) (121, 66) (122, 1) (123, -105) (124, -74) (125, 1) (126, -101) (127, -128) (128, -55) (129, 83) (130, 84) (131, -59) (132, -139) (133, 25) (134, 84) (135, -153) (136, -167) (137, -7) (138, 21) (139, 58) (140, 96) (141, -7) (142, -79) (143, 92) (144, -42) (145, 180) (146, -2926) (147, -2861) (148, -2798) (149, 36486) (150, 3587) (151, 3546) (152, 3608) (153, 36392) (154, -89) (155, 66) (156, -125) (157, -14) (158, 100) (159, -73) (160, 65) (161, 61) (162, -50) (163, -12) (164, -31) (165, 133) (166, 36) (167, 41) (168, 92) (169, -68) (170, -107) (171, -52) (172, 98) (173, -36) (174, 132) (175, -91) (176, -90) (177, 30) (178, -70) (179, 1) (180, 100) (181, 139) (182, 14) (183, -99) (184, -37) (185, 46) (186, 24) (187, 34) (188, 39) (189, 19) (190, -69) (191, 49) (192, 91) (193, 2) (194, 148) (195, 116) (196, -39) (197, -2865) (198, -2922) (199, -2800) (200, 3648) (201, 3605) (202, 3569) (203, 60) (204, 69) (205, -28) (206, 57) (207, 11) (208, -82) (209, 48) (210, 95) (211, 93) (212, 5) (213, 150) (214, 108) (215, -5) (216, 142) (217, 64) (218, -94) (219, -100) (220, 100) (221, 25) (222, -41) (223, 122) (224, 36) (225, 133) (226, 123) (227, 12) (228, 128) (229, -67) (230, 120) (231, 107) (232, -58) (233, -212) (234, 26) (235, 115) (236, 88) (237, 49) (238, 91) (239, 108) (240, 12) (241, 107) (242, 39) (243, -72) (244, -92) (245, -71) (246, 121) (247, 132) (248, -3009) (249, -2789) (250, 3602) (251, 3482) (252, 212) (253, 177) (254, -19) (255, 119) (256, 130) (257, 127) (258, -72) (259, 139) (260, 19) (261, 53) (262, -64) (263, 70) (264, 80) (265, -72) (266, 67) (267, 132) (268, 89) (269, 37) (270, 79) (271, 3) (272, -1) (273, 63) (274, 11) (275, -82) (276, 115) (277, -14) (278, -90) (279, -95) (280, -32) (281, 60) (282, -15) (283, -135) (284, -111) (285, -33) (286, -165) (287, 139) (288, 79) (289, -4) (290, -58) (291, -16) (292, 96) (293, 44) (294, 46) (295, 13) (296, -9) (297, 188) (298, -50) (299, 36328) (300, 3492) (301, 252) (302, 203) (303, 54) (304, 119) (305, -18) (306, 174) (307, 76) (308, -117) (309, 30) (310, 36) (311, 110) (312, -65) (313, 45) (314, 113) (315, -49) (316, 119) (317, 52) (318, 144) (319, -81) (320, -7) (321, 38) (322, 116) (323, 99) (324, 33) (325, -105) (326, -60) (327, -97) (328, -26) (329, 95) (330, 44) (331, -98) (332, 76) (333, -167) (334, 73) (335, -156) (336, -63) (337, 1) (338, 122) (339, 18) (340, 23) (341, 91) (342, -46) (343, 62) (344, -88) (345, 98) (346, 7) (347, 142) (348, 108) (349, 36372) (350, 3657) (351, 253) (352, 235) (353, -63) (354, 108) (355, -36) (356, 76) (357, -72) (358, 37) (359, 91) (360, 3) (361, 129) (362, 95) (363, -3) (364, -2) (365, 97) (366, -34) (367, 116) (368, 129) (369, 120) (370, 81) (371, -21) (372, -85) (373, 79) (374, -102) (375, -57) (376, 78) (377, 110) (378, -38) (379, 133) (380, 122) (381, -12) (382, -148) (383, -79) (384, -72) (385, 11) (386, 27) (387, -3) (388, -93) (389, -75) (390, 3) (391, -88) (392, -49) (393, 14) (394, 33) (395, 7) (396, -13) (397, 71) (398, 342) (399, 266) (400, 3514) (401, 138) (402, -26) (403, 164) (404, 82) (405, -18) (406, 83) (407, -12) (408, -94) (409, 148) (410, -42) (411, -75) (412, -100) (413, 127) (414, 75) (415, -99) (416, -28) (417, 114) (418, 113) (419, 8) (420, -30) (421, -105) (422, 86) (423, -132) (424, -41) (425, -21) (426, -118) (427, -49) (428, -4) (429, -122) (430, -65) (431, 115) (432, 41) (433, 36) (434, 35) (435, -121) (436, -143) (437, -137) (438, 77) (439, -102) (440, -28) (441, 80) (442, -76) (443, 55) (444, -84) (445, -107) (446, -1) (447, 213) (448, 592) (449, 313) (450, 3563) (451, 509) (452, -50) (453, 55) (454, 148) (455, 192) (456, 36) (457, 147) (458, -32) (459, -75) (460, -58) (461, -29) (462, 63) (463, -87) (464, -66) (465, 97) (466, 64) (467, -101) (468, 78) (469, -31) (470, 122) (471, 86) (472, 6) (473, -84) (474, -101) (475, 112) (476, -52) (477, -191) (478, -123) (479, 11) (480, -28) (481, 111) (482, 98) (483, -84) (484, 71) (485, -148) (486, -46) (487, 73) (488, 95) (489, 129) (490, -43) (491, 65) (492, 11) (493, 57) (494, 143) (495, -18) (496, -56) (497, 196) (498, 674) (499, 467) (500, 3560) (501, 2) (502, 90) (503, -21) (504, 144) (505, 182) (506, 35) (507, -41) (508, 61) (509, 94) (510, -90) (511, 57) (512, -66) (513, 89) (514, 51) (515, -24) (516, -92) (517, -19) (518, 165) (519, 101) (520, 82) (521, -94) (522, 42) (523, 32) (524, 49) (525, 110) (526, 45) (527, -60) (528, -155) (529, 79) (530, -47) (531, -116) (532, -41) (533, 77) (534, 4) (535, 74) (536, 48) (537, -140) (538, -135) (539, -57) (540, -53) (541, -26) (542, 130) (543, -56) (544, 117) (545, -58) (546, 87) (547, 143) (548, 655) (549, 531) (550, 1683) (551, 266) (552, 356) (553, 27) (554, -8) (555, 85) (556, 81) (557, 13) (558, -102) (559, -41) (560, 33) (561, 81) (562, -91) (563, -57) (564, 78) (565, 62) (566, -47) (567, 200) (568, 155) (569, 218) (570, 50) (571, 13) (572, 64) (573, 122) (574, -86) (575, 52) (576, -21) (577, -85) (578, -58) (579, -77) (580, 52) (581, 60) (582, 59) (583, -107) (584, 24) (585, -149) (586, -55) (587, 27) (588, 91) (589, -20) (590, -94) (591, 102) (592, 69) (593, 69) (594, 8) (595, 3) (596, -91) (597, 289) (598, 427) (599, 367) (600, 1701) (601, 377) (602, 316) (603, 223) (604, -22) (605, -86) (606, 126) (607, -25) (608, -12) (609, -82) (610, 46) (611, -19) (612, -55) (613, 54) (614, -61) (615, 250) (616, 308) (617, 322) (618, 57) (619, 47) (620, 146) (621, -25) (622, -43) (623, -35) (624, -81) (625, 71) (626, 54) (627, -14) (628, 30) (629, 44) (630, 50) (631, -13) (632, -83) (633, 144) (634, -14) (635, -26) (636, -54) (637, -4) (638, -8) (639, -69) (640, 91) (641, 9) (642, 101) (643, -36) (644, 84) (645, -107) (646, 51) (647, 155) (648, 113) (649, 324) (650, 439) (651, 642) (652, 778) (653, 109) (654, 121) (655, -45) (656, -21) (657, 109) (658, -51) (659, 49) (660, -102) (661, 71) (662, -1) (663, 112) (664, 236) (665, 143) (666, 278) (667, 324) (668, -81) (669, 149) (670, -96) (671, -27) (672, -90) (673, -20) (674, 120) (675, -88) (676, 16) (677, -49) (678, -55) (679, -104) (680, -80) (681, -42) (682, -10) (683, 88) (684, 18) (685, 49) (686, -7) (687, -42) (688, 0) (689, -82) (690, 113) (691, 34) (692, 82) (693, -8) (694, 131) (695, -100) (696, 8) (697, 101) (698, 95) (699, 230) (700, 491) (701, 464) (702, 535) (703, 99) (704, 100) (705, 1) (706, -138) (707, -72) (708, 115) (709, -76) (710, -100) (711, 117) (712, 8) (713, -85) (714, 5) (715, -23) (716, -76) (717, -12) (718, 34) (719, -76) (720, 10) (721, 130) (722, -71) (723, -90) (724, -47) (725, -38) (726, 32) (727, -158) (728, -56) (729, -38) (730, -62) (731, -76) (732, 43) (733, 23) (734, -52) (735, -145) (736, -57) (737, -91) (738, 75) (739, -74) (740, 80) (741, 29) (742, -78) (743, 14) (744, -104) (745, 33) (746, -65) (747, 262) (748, -4) (749, 83) (750, 296) (751, 415) (752, 194) (753, 10) (754, -67) (755, -19) (756, -8) (757, -33) (758, 89) (759, 93) (760, 110) (761, -87) (762, 142) (763, 12) (764, 96) (765, 6) (766, 14) (767, -43) (768, -80) (769, -31) (770, -39) (771, -81) (772, -77) (773, 132) (774, -1) (775, -103) (776, 105) (777, -95) (778, -24) (779, -8) (780, -117) (781, 37) (782, -87) (783, -80) (784, 95) (785, -97) (786, 145) (787, 113) (788, -81) (789, 112) (790, 64) (791, -47) (792, 91) (793, -107) (794, -106) (795, 44) (796, -78) (797, 116) (798, -167) (799, 59) (800, 12) (801, 144) (802, 35) (803, 32) (804, 95) (805, 17) (806, -122) (807, 90) (808, -104) (809, -98) (810, -37) (811, -88) (812, -52) (813, 18) (814, 86) (815, 142) (816, 153) (817, 58) (818, 112) (819, 18) (820, 86) (821, -93) (822, 4) (823, -21) (824, 42) (825, 50) (826, 35) (827, -8) (828, -107) (829, 64) (830, 4) (831, 19) (832, -116) (833, -58) (834, -32) (835, -65) (836, 78) (837, 112) (838, -93) (839, 62) (840, 95) (841, -90) (842, -59) (843, -69) (844, -153) (845, -15) (846, 12) (847, 510) (848, 274) (849, 36515) (850, 31) (851, 42) (852, 188) (853, 131) (854, 2) (855, 30) (856, -149) (857, -98) (858, 10) (859, 81) (860, 23) (861, 47) (862, 183) (863, 81) (864, 56) (865, 151) (866, 61) (867, -34) (868, 0) (869, 5) (870, 97) (871, 51) (872, 100) (873, -46) (874, -120) (875, -137) (876, -121) (877, 140) (878, 137) (879, -56) (880, -114) (881, 147) (882, 61) (883, 54) (884, 123) (885, 4) (886, 6) (887, 88) (888, 125) (889, -27) (890, 42) (891, -10) (892, -109) (893, -216) (894, -21) (895, 80) (896, -6) (897, 435) (898, 36456) (899, 36475) (900, 173) (901, -100) (902, 155) (903, 126) (904, 41) (905, -157) (906, 34) (907, -23) (908, -86) (909, 67) (910, -57) (911, -103) (912, 138) (913, 60) (914, 118) (915, 122) (916, -54) (917, 152) (918, -6) (919, -72) (920, -111) (921, 143) (922, 10) (923, 89) (924, -79) (925, -36) (926, 130) (927, 41) (928, -75) (929, 88) (930, 22) (931, 36) (932, -106) (933, -16) (934, 7) (935, -118) (936, -103) (937, 139) (938, -11) (939, -96) (940, -84) (941, 23) (942, -6) (943, 5) (944, -24) (945, 45) (946, 43) (947, 15007) (948, 36499) (949, 36545) (950, 187) (951, -143) (952, -76) (953, -75) (954, 43) (955, -130) (956, -112) (957, -40) (958, 102) (959, -72) (960, 106) (961, 96) (962, 105) (963, 115) (964, 84) (965, -26) (966, 40) (967, 18) (968, -25) (969, 90) (970, -15) (971, -50) (972, 11) (973, -63) (974, -67) (975, -111) (976, 125) (977, 125) (978, 8) (979, 4) (980, 120) (981, -25) (982, -86) (983, 5) (984, 81) (985, 80) (986, -84) (987, 88) (988, -127) (989, -11) (990, 99) (991, -62) (992, -40) (993, -171) (994, -135) (995, -150) (996, -49) (997, 36362) (998, 36412) (999, 36407) (1000, 224) (1001, 172) (1002, 45) (1003, -89) (1004, -173) (1005, -82) (1006, -174) (1007, 68) (1008, -28) (1009, 84) (1010, 115) (1011, 155) (1012, 22) (1013, -19) (1014, 27) (1015, 68) (1016, -38) (1017, 16) (1018, 148) (1019, -22) (1020, 151) (1021, 159) (1022, 24) (1023, -78) (1024, 94) (1025, 95) (1026, -12) (1027, -83) (1028, 76) (1029, 71) (1030, 53) (1031, -34) (1032, 127) (1033, -9) (1034, -32) (1035, -98) (1036, 1) (1037, 30) (1038, -32) (1039, 19) (1040, -152) (1041, -159) (1042, 4) (1043, -106) (1044, -2) (1045, -63) (1046, 15022) (1047, 36373) (1048, 36399) (1049, 36375) (1050, 36425) (1051, 36558) (1052, -43) (1053, -250) (1054, -17) (1055, -106) (1056, 48) (1057, 141) (1058, 7) (1059, -19) (1060, -73) (1061, -57) (1062, 100) (1063, 87) (1064, 72) (1065, -45) (1066, 1) (1067, 72) (1068, 112) (1069, 56) (1070, -71) (1071, 175) (1072, -71) (1073, 68) (1074, -12) (1075, 10) (1076, 7) (1077, 10) (1078, -60) (1079, -47) (1080, -92) (1081, 55) (1082, 73) (1083, 10) (1084, 23) (1085, 80) (1086, -14) (1087, 65) (1088, 8) (1089, -6) (1090, -192) (1091, 131) (1092, 120) (1093, -56) (1094, -11) (1095, 363) (1096, 36444) (1097, 36403) (1098, 36451) (1099, 36404) (1100, 36513) (1101, 36400) (1102, 14) (1103, 40) (1104, -68) (1105, 19) (1106, -23) (1107, -15) (1108, 115) (1109, -76) (1110, 21) (1111, -81) (1112, 74) (1113, -76) (1114, -78) (1115, -89) (1116, 22) (1117, 45) (1118, 83) (1119, 99) (1120, 175) (1121, 164) (1122, -66) (1123, 85) (1124, 75) (1125, 33) (1126, 115) (1127, -85) (1128, 72) (1129, -89) (1130, -67) (1131, -49) (1132, 85) (1133, -42) (1134, -46) (1135, -135) (1136, 53) (1137, -57) (1138, 6) (1139, 88) (1140, 20) (1141, 189) (1142, 136) (1143, -85) (1144, 48) (1145, -144) (1146, 36559) (1147, 36437) (1148, 36501) (1149, 36536) (1150, 36383) (1151, 36513) (1152, 36356) (1153, 77) (1154, 0) (1155, 50) (1156, -32) (1157, 82) (1158, 20) (1159, -108) (1160, 94) (1161, 347) (1162, 311) (1163, 322) (1164, 430) (1165, 326) (1166, 110) (1167, 193) (1168, 154) (1169, 136) (1170, -6) (1171, 50) (1172, 171) (1173, 100) (1174, 6) (1175, 94) (1176, 268) (1177, 22) (1178, -35) (1179, -64) (1180, 85) (1181, -19) (1182, 11) (1183, 176) (1184, 64) (1185, 125) (1186, 188) (1187, 174) (1188, 356) (1189, 350) (1190, 225) (1191, 357) (1192, 130) (1193, 181) (1194, -258) (1195, -235) (1196, 36338) (1197, 36351) (1198, 36448) (1199, 36341) (1200, 36522) (1201, 36313) (1202, 36310) (1203, 36455) (1204, 36380) (1205, -26) (1206, -115) (1207, -90) (1208, -96) (1209, 8) (1210, -48) (1211, 191) (1212, 83) (1213, 295) (1214, 304) (1215, 194) (1216, 316) (1217, 1349) (1218, 650) (1219, 177) (1220, 339) (1221, 599) (1222, 88) (1223, 266) (1224, -12) (1225, 104) (1226, -5) (1227, -8) (1228, 725) (1229, 578) (1230, 119) (1231, 670) (1232, 680) (1233, 549) (1234, 641) (1235, 143) (1236, 263) (1237, 89) (1238, 18) (1239, 183) (1240, 121) (1241, 232) (1242, -80) (1243, -273) (1244, -41) (1245, 36512) (1246, 36508) (1247, 36552) (1248, 36357) (1249, 36384) (1250, -1) (0, 36555) (1, 36482) (2, 36494) (3, 36390) (4, 36541) (5, 374) (6, 173) (7, 208) (8, 149) (9, 944) (10, 904) (11, 36364) (12, 36507) (13, 36419) (14, 36319) (15, 15039) (16, 15086) (17, 15154) (18, 15189) (19, 14981) (20, 503) (21, 472) (22, 1165) (23, 97) (24, 219) (25, 269) (26, 70) (27, 35) (28, -11) (29, 50) (30, -115) (31, -142) (32, 102) (33, -128) (34, -11) (35, -180) (36, -131) (37, 61) (38, 204) (39, 99) (40, 101) (41, 203) (42, 177) (43, 141) (44, 160) (45, 211) (46, 129) (47, 209) (48, 36419) (49, 36349) (50, 36385) (51, 36434) (52, 36518) (53, 36428) (54, 36338) (55, 276) (56, 263) (57, 152) (58, 260) (59, 194) (60, 125) (61, -50) (62, 578) (63, 38) (64, 178) (65, -17) (66, 116) (67, 60) (68, -15) (69, 6) (70, 28) (71, 125) (72, 82) (73, 32) (74, 29) (75, 109) (76, -106) (77, 18) (78, 36) (79, 60) (80, 44) (81, 8) (82, 51) (83, -9) (84, -24) (85, -202) (86, -129) (87, 65) (88, -106) (89, 4) (90, 87) (91, 37) (92, 315) (93, 155) (94, 175) (95, 249) (96, 289) (97, 140) (98, 289) (99, 36464) (100, 15110) (101, 15028) (102, 36459) (103, 36337) (104, 36490) (105, 291) (106, 107) (107, 234) (108, 220) (109, 65) (110, 33) (111, 139) (112, 1) (113, 44) (114, 174) (115, -60) (116, 100) (117, 175) (118, 66) (119, 109) (120, 49) (121, -31) (122, 40) (123, 96) (124, 19) (125, 173) (126, 146) (127, 208) (128, -15) (129, 198) (130, 144) (131, 30) (132, 8) (133, 23) (134, 80) (135, 107) (136, 21) (137, -38) (138, -76) (139, 131) (140, 87) (141, 100) (142, 35) (143, 265) (144, 332) (145, 63) (146, -80) (147, -194) (148, -68) (149, 36365) (150, 15095) (151, 15125) (152, 15020) (153, 36343) (154, 292) (155, 111) (156, 139) (157, 233) (158, -32) (159, 31) (160, 54) (161, 244) (162, -54) (163, 220) (164, 177) (165, 151) (166, 81) (167, 58) (168, 102) (169, -30) (170, 64) (171, -70) (172, -18) (173, -11) (174, 1) (175, -21) (176, 80) (177, 84) (178, 197) (179, 126) (180, 169) (181, -3) (182, 34) (183, 38) (184, 121) (185, 48) (186, 109) (187, 94) (188, 12) (189, 35) (190, 97) (191, 175) (192, 144) (193, 38) (194, 109) (195, -87) (196, -464) (197, -248) (198, -204) (199, -719) (200, 15120) (201, 15053) (202, 15047) (203, -129) (204, 220) (205, 318) (206, 38) (207, 13) (208, 13) (209, 30) (210, 103) (211, 42) (212, 212) (213, 13) (214, -42) (215, 10) (216, 13) (217, 65) (218, -2) (219, 141) (220, 48) (221, 124) (222, 83) (223, 40) (224, 146) (225, -6) (226, 133) (227, -18) (228, 145) (229, 128) (230, -45) (231, 103) (232, 143) (233, -98) (234, 23) (235, 141) (236, 4) (237, -65) (238, 93) (239, 133) (240, 56) (241, -62) (242, -66) (243, -74) (244, -38) (245, -25) (246, 11) (247, -394) (248, -73) (249, -727) (250, 15204) (251, 15050) (252, 49) (253, 5) (254, 247) (255, -24) (256, -80) (257, -56) (258, 69) (259, 121) (260, 104) (261, 84) (262, 185) (263, 32) (264, -59) (265, 29) (266, -16) (267, 127) (268, 97) (269, 97) (270, 96) (271, -32) (272, 51) (273, -93) (274, 50) (275, 11) (276, 139) (277, 3) (278, -53) (279, 12) (280, 123) (281, -87) (282, 5) (283, -17) (284, 140) (285, -103) (286, -71) (287, 46) (288, -74) (289, -23) (290, 16) (291, 76) (292, -5) (293, 83) (294, 40) (295, -79) (296, -121) (297, -550) (298, -415) (299, 36404) (300, 14999) (301, 198) (302, -40) (303, 147) (304, 20) (305, 27) (306, 142) (307, 51) (308, -9) (309, -33) (310, -31) (311, 8) (312, 0) (313, -24) (314, 40) (315, 100) (316, -110) (317, 118) (318, 107) (319, 128) (320, 145) (321, 48) (322, 84) (323, -129) (324, 53) (325, 100) (326, -70) (327, 15) (328, 26) (329, 108) (330, -107) (331, 74) (332, 103) (333, -2) (334, 34) (335, 103) (336, 5) (337, -43) (338, -36) (339, 4) (340, 171) (341, 150) (342, 152) (343, -39) (344, 69) (345, -150) (346, -114) (347, -443) (348, -346) (349, 36479) (350, 15203) (351, 122) (352, 217) (353, -57) (354, -89) (355, 128) (356, -19) (357, 133) (358, -28) (359, -79) (360, -62) (361, 63) (362, -96) (363, 122) (364, 41) (365, -7) (366, -63) (367, 134) (368, -50) (369, -81) (370, 95) (371, -59) (372, -127) (373, 125) (374, -57) (375, 44) (376, 30) (377, -108) (378, -75) (379, 16) (380, -118) (381, -46) (382, -29) (383, 84) (384, -34) (385, -52) (386, 124) (387, 43) (388, 15) (389, -49) (390, 134) (391, -25) (392, 82) (393, 30) (394, 139) (395, 2) (396, 52) (397, -50) (398, 31) (399, 122) (400, 15220) (401, 79) (402, 49) (403, 4) (404, 100) (405, -61) (406, 63) (407, 70) (408, -57) (409, 97) (410, 129) (411, 103) (412, 125) (413, 24) (414, -27) (415, 49) (416, -71) (417, -30) (418, -57) (419, -70) (420, 61) (421, 96) (422, 49) (423, -82) (424, -113) (425, -6) (426, 31) (427, 49) (428, 88) (429, -63) (430, -70) (431, 98) (432, 58) (433, -62) (434, 146) (435, -31) (436, 72) (437, 19) (438, 68) (439, 32) (440, 15) (441, 181) (442, 0) (443, -89) (444, -43) (445, 139) (446, -69) (447, 90) (448, -85) (449, 83) (450, 15168) (451, 351) (452, 39) (453, 92) (454, -57) (455, 167) (456, 169) (457, 177) (458, 155) (459, -29) (460, -23) (461, -21) (462, -42) (463, 113) (464, 13) (465, -7) (466, -89) (467, 50) (468, -95) (469, -121) (470, 18) (471, -211) (472, -56) (473, 91) (474, -143) (475, -88) (476, -61) (477, -162) (478, 6) (479, 54) (480, -69) (481, -6) (482, 127) (483, 165) (484, 258) (485, 77) (486, -18) (487, 13) (488, -42) (489, 161) (490, -8) (491, -71) (492, -85) (493, -54) (494, 77) (495, -73) (496, 7) (497, 123) (498, -28) (499, 239) (500, 14987) (501, 177) (502, 57) (503, 222) (504, 16) (505, -28) (506, 129) (507, 81) (508, -27) (509, -51) (510, 30) (511, -55) (512, -25) (513, 107) (514, 128) (515, -9) (516, 59) (517, 7) (518, -98) (519, -5) (520, 71) (521, -34) (522, -88) (523, -101) (524, -57) (525, -111) (526, -14) (527, -156) (528, -106) (529, 60) (530, -31) (531, 236) (532, 89) (533, 62) (534, 102) (535, -56) (536, 102) (537, 51) (538, 166) (539, -25) (540, -70) (541, 153) (542, -50) (543, -97) (544, 32) (545, -33) (546, 23) (547, 7) (548, 36) (549, 290) (550, 1354) (551, 113) (552, 181) (553, 75) (554, 93) (555, 2) (556, 50) (557, 125) (558, 1) (559, 30) (560, 115) (561, -87) (562, 117) (563, 40) (564, 155) (565, -90) (566, 17) (567, 19) (568, -88) (569, 78) (570, -66) (571, 25) (572, 12) (573, -91) (574, -115) (575, 39) (576, -113) (577, 30) (578, -96) (579, -79) (580, 67) (581, 21) (582, -45) (583, 207) (584, -77) (585, -9) (586, 141) (587, 15) (588, -109) (589, 124) (590, 74) (591, -65) (592, 95) (593, 131) (594, 124) (595, -44) (596, -57) (597, 59) (598, 142) (599, 168) (600, 2900) (601, 135) (602, 102) (603, 153) (604, -108) (605, 54) (606, 38) (607, 46) (608, -65) (609, -1) (610, -15) (611, 106) (612, 174) (613, 114) (614, 119) (615, 193) (616, 53) (617, -160) (618, -73) (619, 85) (620, 5) (621, 65) (622, -19) (623, 81) (624, 6) (625, -5) (626, -79) (627, -116) (628, 85) (629, 150) (630, 108) (631, -133) (632, -124) (633, 128) (634, -56) (635, 111) (636, 89) (637, 107) (638, 26) (639, 130) (640, 79) (641, 156) (642, 10) (643, -21) (644, 99) (645, -71) (646, -96) (647, -139) (648, -57) (649, 140) (650, 16) (651, 52) (652, 148) (653, 76) (654, 125) (655, 23) (656, 73) (657, 60) (658, 27) (659, 152) (660, -72) (661, 139) (662, 138) (663, 25) (664, -15) (665, 170) (666, -3) (667, -88) (668, -98) (669, 5) (670, -74) (671, -66) (672, -61) (673, 48) (674, 110) (675, 79) (676, -119) (677, -138) (678, 90) (679, 68) (680, -30) (681, 114) (682, -30) (683, 100) (684, -98) (685, 155) (686, 23) (687, 31) (688, 16) (689, 177) (690, -1) (691, 52) (692, 3) (693, 103) (694, 76) (695, -95) (696, -14) (697, -55) (698, 60) (699, 14) (700, 13) (701, -2) (702, 4) (703, -53) (704, 33) (705, -41) (706, -12) (707, -61) (708, -43) (709, 14) (710, -54) (711, -25) (712, 79) (713, 5) (714, 131) (715, 114) (716, 38) (717, 82) (718, -64) (719, -28) (720, -37) (721, -62) (722, -2) (723, 48) (724, 97) (725, 74) (726, 54) (727, -103) (728, 67) (729, -57) (730, 57) (731, -106) (732, 15) (733, -17) (734, -26) (735, -1) (736, -38) (737, -12) (738, 138) (739, 200) (740, -54) (741, 93) (742, 137) (743, -59) (744, 53) (745, -8) (746, -50) (747, 67) (748, -116) (749, -126) (750, -88) (751, 112) (752, -18) (753, 57) (754, 128) (755, 54) (756, 41) (757, -9) (758, 122) (759, 91) (760, 160) (761, 167) (762, 17) (763, 77) (764, -77) (765, 165) (766, 126) (767, -26) (768, -103) (769, 119) (770, -2) (771, -147) (772, -47) (773, 25) (774, -24) (775, 78) (776, -63) (777, 31) (778, 31) (779, -51) (780, -17) (781, -113) (782, -64) (783, 84) (784, -28) (785, 85) (786, 196) (787, 32) (788, 130) (789, 160) (790, -53) (791, -52) (792, 77) (793, 28) (794, 64) (795, 14) (796, -93) (797, -85) (798, -27) (799, -146) (800, 89) (801, 43) (802, -70) (803, 10) (804, 42) (805, -134) (806, 90) (807, 8) (808, 112) (809, 67) (810, 101) (811, 69) (812, 37) (813, 73) (814, 6) (815, 127) (816, 75) (817, 85) (818, 103) (819, 117) (820, 88) (821, 99) (822, 11) (823, -68) (824, 104) (825, 124) (826, 27) (827, -45) (828, -28) (829, 23) (830, 105) (831, -15) (832, -37) (833, 88) (834, -24) (835, -58) (836, -35) (837, 47) (838, -56) (839, 80) (840, 14) (841, 61) (842, 46) (843, -70) (844, -110) (845, 46) (846, 24) (847, 43) (848, -190) (849, 36443) (850, 122) (851, -107) (852, 109) (853, -41) (854, -95) (855, 68) (856, -157) (857, 57) (858, 83) (859, -92) (860, 143) (861, 87) (862, 7) (863, 86) (864, 101) (865, 152) (866, 124) (867, -10) (868, -27) (869, 141) (870, -114) (871, -73) (872, -34) (873, -12) (874, 53) (875, 97) (876, -32) (877, -88) (878, 108) (879, 89) (880, -92) (881, 57) (882, 42) (883, -96) (884, 99) (885, 188) (886, -37) (887, 179) (888, 58) (889, -39) (890, 174) (891, 20) (892, 30) (893, 32) (894, 59) (895, -68) (896, 113) (897, 563) (898, 36483) (899, 36444) (900, 73) (901, -12) (902, -119) (903, 75) (904, 1) (905, -109) (906, -159) (907, -27) (908, -50) (909, -101) (910, 119) (911, 70) (912, 124) (913, -46) (914, 114) (915, -21) (916, -77) (917, 33) (918, -83) (919, 60) (920, 36) (921, -21) (922, -102) (923, -74) (924, 50) (925, 110) (926, 90) (927, 87) (928, 23) (929, -21) (930, 169) (931, 165) (932, 118) (933, 64) (934, 112) (935, -27) (936, -43) (937, 126) (938, 103) (939, 136) (940, 129) (941, 25) (942, -116) (943, 30) (944, 32) (945, -117) (946, 10) (947, 15087) (948, 36310) (949, 36334) (950, 89) (951, 27) (952, 3) (953, 62) (954, -515) (955, 111) (956, 106) (957, -6) (958, -48) (959, -22) (960, -20) (961, -62) (962, 118) (963, 59) (964, 73) (965, 69) (966, 97) (967, 84) (968, 53) (969, 118) (970, 75) (971, -60) (972, -66) (973, 106) (974, 103) (975, 137) (976, -8) (977, -58) (978, 8) (979, -58) (980, 79) (981, 113) (982, 11) (983, 65) (984, -15) (985, -30) (986, 78) (987, 75) (988, 82) (989, 0) (990, 9) (991, -74) (992, 23) (993, -31) (994, 177) (995, 40) (996, -31) (997, 36549) (998, 36422) (999, 36436) (1000, 155) (1001, 268) (1002, -51) (1003, 9) (1004, -122) (1005, 18) (1006, -58) (1007, 70) (1008, 49) (1009, 96) (1010, 110) (1011, -90) (1012, -17) (1013, 158) (1014, 90) (1015, 141) (1016, 50) (1017, 166) (1018, 74) (1019, 98) (1020, 147) (1021, 48) (1022, 128) (1023, 144) (1024, -49) (1025, -26) (1026, 42) (1027, 42) (1028, -117) (1029, 132) (1030, -79) (1031, 30) (1032, 158) (1033, 132) (1034, 137) (1035, -57) (1036, -66) (1037, -51) (1038, -59) (1039, 3) (1040, -93) (1041, -42) (1042, -8) (1043, 73) (1044, 158) (1045, 110) (1046, 15130) (1047, 36350) (1048, 36500) (1049, 36353) (1050, 36426) (1051, 36334) (1052, 57) (1053, 46) (1054, -113) (1055, 38) (1056, 43) (1057, 85) (1058, 94) (1059, 32) (1060, -1) (1061, 113) (1062, -10) (1063, 126) (1064, 69) (1065, 110) (1066, 81) (1067, 166) (1068, 5) (1069, -57) (1070, -15) (1071, 132) (1072, -1) (1073, 101) (1074, 5) (1075, -16) (1076, 97) (1077, 94) (1078, 36) (1079, 151) (1080, 68) (1081, 143) (1082, 130) (1083, 41) (1084, -50) (1085, 18) (1086, -100) (1087, 56) (1088, 44) (1089, 80) (1090, -17) (1091, 155) (1092, 47) (1093, 117) (1094, 30) (1095, 2485) (1096, 36332) (1097, 36415) (1098, 36522) (1099, 36547) (1100, 36472) (1101, 36528) (1102, 219) (1103, -18) (1104, -58) (1105, -75) (1106, -80) (1107, 132) (1108, -84) (1109, -25) (1110, 78) (1111, 20) (1112, -114) (1113, 15) (1114, -77) (1115, -16) (1116, 134) (1117, -26) (1118, 60) (1119, -46) (1120, 104) (1121, 345) (1122, -34) (1123, 83) (1124, 148) (1125, 108) (1126, 20) (1127, 38) (1128, -81) (1129, 69) (1130, 28) (1131, 146) (1132, 6) (1133, -25) (1134, 110) (1135, -90) (1136, -47) (1137, 70) (1138, 62) (1139, 159) (1140, -87) (1141, -33) (1142, -9) (1143, 149) (1144, 32) (1145, 380) (1146, 36391) (1147, 36481) (1148, 36466) (1149, 36486) (1150, 36461) (1151, 36427) (1152, 36489) (1153, 122) (1154, 150) (1155, -28) (1156, -116) (1157, -115) (1158, -50) (1159, 71) (1160, 82) (1161, 119) (1162, 43) (1163, -102) (1164, -72) (1165, 176) (1166, 141) (1167, 16) (1168, 86) (1169, 80) (1170, 193) (1171, 178) (1172, 0) (1173, 61) (1174, 103) (1175, 122) (1176, 50) (1177, 35) (1178, 20) (1179, 175) (1180, 155) (1181, 225) (1182, 130) (1183, 85) (1184, -27) (1185, 191) (1186, 128) (1187, 96) (1188, 27) (1189, 69) (1190, 175) (1191, 145) (1192, -58) (1193, -10) (1194, 223) (1195, 348) (1196, 36459) (1197, 36359) (1198, 36342) (1199, 36513) (1200, 36468) (1201, 36436) (1202, 36532) (1203, 36335) (1204, 36515) (1205, 561) (1206, 58) (1207, -107) (1208, -22) (1209, 48) (1210, 217) (1211, 66) (1212, -112) (1213, 47) (1214, 326) (1215, 336) (1216, 230) (1217, 204) (1218, 507) (1219, 809) (1220, 785) (1221, 433) (1222, 254) (1223, 212) (1224, 169) (1225, 68) (1226, 423) (1227, 217) (1228, 35) (1229, 106) (1230, 133) (1231, 52) (1232, 118) (1233, 43) (1234, 85) (1235, 25) (1236, 187) (1237, 117) (1238, 85) (1239, 19) (1240, 24) (1241, 161) (1242, 2522) (1243, 413) (1244, 267) (1245, 36476) (1246, 36489) (1247, 36520) (1248, 36443) (1249, 36331) (1250, -192) (0, 36386) (1, 36524) (2, 36497) (3, 36352) (4, 36331) (5, -610) (6, -571) (7, 133) (8, 112) (9, -1709) (10, -1583) (11, 36328) (12, 36374) (13, 36309) (14, 36336) (15, 4441) (16, 4277) (17, 4305) (18, 4453) (19, 4375) (20, 2352) (21, 2560) (22, 5263) (23, 609) (24, 440) (25, 448) (26, -9) (27, 507) (28, 451) (29, 172) (30, -37) (31, 62) (32, 6) (33, 48) (34, 100) (35, -136) (36, 139) (37, 78) (38, 1) (39, 233) (40, -72) (41, -259) (42, 4) (43, -234) (44, -154) (45, -218) (46, -189) (47, -260) (48, 36532) (49, 36371) (50, 36517) (51, 36334) (52, 36475) (53, 36350) (54, 36421) (55, -521) (56, 25) (57, 26) (58, -171) (59, -32) (60, 175) (61, -188) (62, -277) (63, -150) (64, -38) (65, -100) (66, -235) (67, -184) (68, -165) (69, 88) (70, 281) (71, 279) (72, 419) (73, 350) (74, 57) (75, -10) (76, -70) (77, -42) (78, -141) (79, -32) (80, 128) (81, -165) (82, 62) (83, -18) (84, -67) (85, 58) (86, 622) (87, 550) (88, 483) (89, 247) (90, 354) (91, 202) (92, -281) (93, -154) (94, 610) (95, -26) (96, -199) (97, -313) (98, -217) (99, 36501) (100, 1693) (101, 1844) (102, 36351) (103, 36342) (104, 36424) (105, -193) (106, 283) (107, 202) (108, 146) (109, 113) (110, -15) (111, 11) (112, -215) (113, -171) (114, -81) (115, -184) (116, 29) (117, 206) (118, 200) (119, 275) (120, 151) (121, 295) (122, 213) (123, 162) (124, 66) (125, 104) (126, -72) (127, -16) (128, 59) (129, -111) (130, -63) (131, -119) (132, -70) (133, -108) (134, -242) (135, -27) (136, -143) (137, 254) (138, 114) (139, 94) (140, 230) (141, 231) (142, 70) (143, -427) (144, 15) (145, 142) (146, 10) (147, -10) (148, 104) (149, 36493) (150, 1763) (151, 1817) (152, 1732) (153, 36395) (154, 404) (155, 397) (156, 188) (157, 190) (158, 81) (159, -13) (160, 9) (161, 58) (162, 72) (163, 191) (164, 330) (165, 153) (166, 321) (167, 103) (168, -8) (169, 165) (170, 145) (171, 164) (172, 164) (173, 230) (174, 113) (175, 78) (176, 301) (177, -17) (178, 9) (179, 55) (180, -52) (181, -158) (182, -191) (183, 14) (184, 30) (185, -8) (186, -162) (187, -12) (188, 20) (189, -99) (190, -159) (191, 264) (192, 195) (193, -41) (194, -116) (195, -61) (196, 503) (197, 95) (198, -125) (199, 133) (200, 1667) (201, 1601) (202, 1838) (203, 1158) (204, 261) (205, -24) (206, 140) (207, 275) (208, 144) (209, 175) (210, 125) (211, 8) (212, 149) (213, 178) (214, 38) (215, 267) (216, 226) (217, 152) (218, 285) (219, 242) (220, 268) (221, 64) (222, 205) (223, -173) (224, -186) (225, 279) (226, -140) (227, -63) (228, -44) (229, -100) (230, -5) (231, -49) (232, 25) (233, -135) (234, -123) (235, -32) (236, -36) (237, -139) (238, -42) (239, 47) (240, 15) (241, 136) (242, 273) (243, 250) (244, 77) (245, 190) (246, 433) (247, 333) (248, 39) (249, 349) (250, 1766) (251, 1752) (252, 71) (253, 726) (254, 179) (255, 161) (256, 264) (257, 226) (258, 67) (259, 230) (260, 75) (261, 253) (262, 89) (263, 44) (264, 406) (265, 187) (266, 124) (267, 19) (268, 160) (269, 160) (270, 127) (271, 259) (272, 188) (273, 150) (274, 238) (275, 6) (276, 61) (277, -177) (278, -91) (279, -220) (280, -193) (281, 20) (282, -4) (283, -151) (284, -194) (285, -226) (286, 12) (287, -151) (288, 185) (289, 32) (290, 83) (291, 202) (292, 195) (293, 242) (294, 137) (295, 239) (296, 67) (297, 348) (298, 420) (299, 36457) (300, 1731) (301, 154) (302, 123) (303, 641) (304, 218) (305, 230) (306, 106) (307, 72) (308, 198) (309, 192) (310, 145) (311, 187) (312, 227) (313, 392) (314, 162) (315, 201) (316, 123) (317, 236) (318, 148) (319, 213) (320, 39) (321, 80) (322, 289) (323, 220) (324, 260) (325, 156) (326, -96) (327, 98) (328, -135) (329, 55) (330, -17) (331, -66) (332, -220) (333, -80) (334, -175) (335, -258) (336, -223) (337, -94) (338, -132) (339, 2) (340, -138) (341, 30) (342, 238) (343, 74) (344, 281) (345, 86) (346, -7) (347, 537) (348, 189) (349, 36331) (350, 1642) (351, 7) (352, 93) (353, -118) (354, 0) (355, 308) (356, 193) (357, 165) (358, 240) (359, 54) (360, 260) (361, 154) (362, 181) (363, 40) (364, 98) (365, 224) (366, 131) (367, 79) (368, 145) (369, 257) (370, 48) (371, 69) (372, 243) (373, 105) (374, 127) (375, 173) (376, 37) (377, 30) (378, -149) (379, 55) (380, -81) (381, -256) (382, -142) (383, -118) (384, -443) (385, -298) (386, -283) (387, -301) (388, 282) (389, 38) (390, -34) (391, 241) (392, -37) (393, 111) (394, 137) (395, 244) (396, 98) (397, 77) (398, 415) (399, 534) (400, 1814) (401, 66) (402, -6) (403, 28) (404, 94) (405, 51) (406, 75) (407, 57) (408, 50) (409, 104) (410, 87) (411, 271) (412, 173) (413, 140) (414, 29) (415, 199) (416, 236) (417, 67) (418, 83) (419, 323) (420, 253) (421, 124) (422, 257) (423, 269) (424, 78) (425, 194) (426, 179) (427, 196) (428, 216) (429, 57) (430, -7) (431, -102) (432, -118) (433, -275) (434, -194) (435, -230) (436, -160) (437, -96) (438, 70) (439, 122) (440, 39) (441, 200) (442, 111) (443, 99) (444, 249) (445, 379) (446, 259) (447, 268) (448, 521) (449, 729) (450, 1612) (451, 792) (452, 117) (453, 82) (454, 194) (455, 25) (456, 41) (457, 141) (458, 190) (459, 194) (460, 116) (461, 372) (462, 52) (463, 234) (464, 117) (465, 216) (466, 161) (467, 160) (468, -26) (469, 219) (470, 6) (471, 41) (472, 228) (473, 444) (474, 160) (475, 134) (476, 153) (477, 211) (478, 222) (479, -40) (480, -109) (481, -58) (482, -30) (483, 182) (484, 60) (485, -116) (486, 55) (487, 97) (488, 179) (489, 105) (490, 86) (491, 98) (492, 57) (493, 36) (494, 138) (495, 384) (496, 152) (497, 187) (498, 696) (499, 745) (500, 1818) (501, -77) (502, 297) (503, 279) (504, 177) (505, 127) (506, 63) (507, 160) (508, 58) (509, 118) (510, 173) (511, 135) (512, 227) (513, 172) (514, 101) (515, 275) (516, 227) (517, 43) (518, 55) (519, 86) (520, 79) (521, 77) (522, 184) (523, 230) (524, 98) (525, 113) (526, 242) (527, 89) (528, 8) (529, -35) (530, 113) (531, 24) (532, -5) (533, 49) (534, 3) (535, 62) (536, 183) (537, 167) (538, 228) (539, 200) (540, 272) (541, 140) (542, 118) (543, -1) (544, 49) (545, 209) (546, 368) (547, 419) (548, 630) (549, 724) (550, 1888) (551, 417) (552, 405) (553, 378) (554, 157) (555, 37) (556, -21) (557, 219) (558, 248) (559, 171) (560, 175) (561, 158) (562, 75) (563, 310) (564, 154) (565, 361) (566, 356) (567, 111) (568, 25) (569, 270) (570, 29) (571, 174) (572, 268) (573, 235) (574, 68) (575, 80) (576, 226) (577, 115) (578, 92) (579, 64) (580, 96) (581, 158) (582, 169) (583, 233) (584, 60) (585, 98) (586, 198) (587, 210) (588, 220) (589, 68) (590, 273) (591, 65) (592, 245) (593, 19) (594, 2) (595, 238) (596, 778) (597, 246) (598, 603) (599, 968) (600, 2942) (601, 538) (602, 191) (603, 134) (604, 92) (605, 49) (606, 158) (607, 105) (608, 236) (609, 272) (610, 102) (611, 113) (612, 70) (613, 179) (614, 252) (615, 275) (616, 1181) (617, 1022) (618, 173) (619, 224) (620, 196) (621, 181) (622, 69) (623, 222) (624, 132) (625, 236) (626, 18) (627, 217) (628, 218) (629, 175) (630, 173) (631, 142) (632, 116) (633, 73) (634, 216) (635, 351) (636, 68) (637, 73) (638, 131) (639, 180) (640, 233) (641, 111) (642, 236) (643, 121) (644, 139) (645, 377) (646, 679) (647, 612) (648, 88) (649, 763) (650, 1408) (651, 572) (652, 420) (653, 257) (654, 75) (655, 128) (656, 102) (657, 204) (658, 252) (659, 169) (660, 202) (661, 247) (662, 409) (663, 312) (664, 516) (665, 421) (666, 2767) (667, 738) (668, 292) (669, 293) (670, 181) (671, 88) (672, 117) (673, 146) (674, 239) (675, 14) (676, 129) (677, 39) (678, 130) (679, 183) (680, 173) (681, 191) (682, -23) (683, 225) (684, 151) (685, 232) (686, 287) (687, 169) (688, 45) (689, 33) (690, 193) (691, 84) (692, 112) (693, -84) (694, 224) (695, 370) (696, 356) (697, 767) (698, 43) (699, 680) (700, 745) (701, 162) (702, 419) (703, 157) (704, 67) (705, 147) (706, 18) (707, 211) (708, 162) (709, 186) (710, 137) (711, 392) (712, 227) (713, 245) (714, 252) (715, 491) (716, 267) (717, 131) (718, 146) (719, 134) (720, 253) (721, 87) (722, 114) (723, 27) (724, 126) (725, 207) (726, 71) (727, 63) (728, 29) (729, 121) (730, 87) (731, 169) (732, 207) (733, 388) (734, 415) (735, 197) (736, 135) (737, 219) (738, 179) (739, 99) (740, 243) (741, 142) (742, 19) (743, 222) (744, 273) (745, 142) (746, 234) (747, 712) (748, 235) (749, 604) (750, 411) (751, 111) (752, 232) (753, 54) (754, 48) (755, 182) (756, 191) (757, 35) (758, 55) (759, 228) (760, 178) (761, 259) (762, 193) (763, 409) (764, 317) (765, 237) (766, 238) (767, 94) (768, -82) (769, 128) (770, 52) (771, -3) (772, 177) (773, 121) (774, 208) (775, 269) (776, 223) (777, 192) (778, 23) (779, 205) (780, 80) (781, 145) (782, 246) (783, 152) (784, 326) (785, 278) (786, 314) (787, 318) (788, 149) (789, 87) (790, 209) (791, 246) (792, 5) (793, -119) (794, -99) (795, 227) (796, 326) (797, 154) (798, -947) (799, -155) (800, -162) (801, -84) (802, 236) (803, 57) (804, 70) (805, -71) (806, -95) (807, 47) (808, 224) (809, 26) (810, 136) (811, 88) (812, 145) (813, 132) (814, 409) (815, 395) (816, 407) (817, -69) (818, 210) (819, 102) (820, 198) (821, 149) (822, 174) (823, 62) (824, 136) (825, 30) (826, 209) (827, 97) (828, -27) (829, 210) (830, 129) (831, 107) (832, 211) (833, 401) (834, 354) (835, 238) (836, 350) (837, 226) (838, 52) (839, 130) (840, 34) (841, 197) (842, -80) (843, -243) (844, 89) (845, 284) (846, -24) (847, 178) (848, -296) (849, 36391) (850, 114) (851, -64) (852, -63) (853, -187) (854, 124) (855, -198) (856, 160) (857, 99) (858, 94) (859, 43) (860, 222) (861, 107) (862, 269) (863, 189) (864, 193) (865, 123) (866, 51) (867, 169) (868, 170) (869, 93) (870, 146) (871, 194) (872, 64) (873, -2) (874, 196) (875, 74) (876, 57) (877, 205) (878, 180) (879, 73) (880, 38) (881, 350) (882, 407) (883, 322) (884, 286) (885, 107) (886, 67) (887, 331) (888, 227) (889, 96) (890, 155) (891, 54) (892, -122) (893, -64) (894, -268) (895, 478) (896, -11) (897, 2473) (898, 36367) (899, 36441) (900, -97) (901, -174) (902, -242) (903, -119) (904, -127) (905, -208) (906, 120) (907, 264) (908, 205) (909, 108) (910, 6) (911, 76) (912, 39) (913, 49) (914, 280) (915, 149) (916, 91) (917, 137) (918, 149) (919, 99) (920, -79) (921, 171) (922, 6) (923, 195) (924, 76) (925, 31) (926, 135) (927, 163) (928, 139) (929, 314) (930, 149) (931, 45) (932, 260) (933, 335) (934, 230) (935, 147) (936, 307) (937, 312) (938, -37) (939, 187) (940, -154) (941, -66) (942, -178) (943, -97) (944, -72) (945, -199) (946, 77) (947, 14917) (948, 36333) (949, 36478) (950, 4) (951, -109) (952, -166) (953, -120) (954, -64) (955, 243) (956, 105) (957, 187) (958, 289) (959, 250) (960, 146) (961, 239) (962, 242) (963, 130) (964, 58) (965, 171) (966, 27) (967, 209) (968, 126) (969, 106) (970, -50) (971, 13) (972, -4) (973, 84) (974, 265) (975, -11) (976, 260) (977, 180) (978, 261) (979, 54) (980, 32) (981, 250) (982, 211) (983, 184) (984, 151) (985, 253) (986, 256) (987, -69) (988, 214) (989, 67) (990, 160) (991, -298) (992, -170) (993, -175) (994, -193) (995, -76) (996, 259) (997, 36472) (998, 36560) (999, 36525) (1000, 15101) (1001, -193) (1002, -11) (1003, -206) (1004, -189) (1005, 134) (1006, 203) (1007, 229) (1008, 253) (1009, 110) (1010, 98) (1011, 152) (1012, 40) (1013, 181) (1014, 106) (1015, 237) (1016, 209) (1017, 56) (1018, 165) (1019, 126) (1020, -5) (1021, 84) (1022, 51) (1023, 218) (1024, 80) (1025, 99) (1026, 202) (1027, 266) (1028, 74) (1029, 198) (1030, 220) (1031, 173) (1032, 109) (1033, 212) (1034, 97) (1035, 37) (1036, 22) (1037, 148) (1038, 257) (1039, 28) (1040, -79) (1041, -150) (1042, -72) (1043, -160) (1044, -70) (1045, 88) (1046, 14857) (1047, 36387) (1048, 36496) (1049, 36359) (1050, 36366) (1051, 36427) (1052, -68) (1053, -273) (1054, 2) (1055, -183) (1056, 59) (1057, 188) (1058, 217) (1059, 45) (1060, 42) (1061, 74) (1062, 75) (1063, -25) (1064, 1) (1065, 150) (1066, 174) (1067, -9) (1068, 173) (1069, 160) (1070, 49) (1071, 74) (1072, 191) (1073, 176) (1074, 223) (1075, 917) (1076, 916) (1077, 265) (1078, 462) (1079, 450) (1080, 392) (1081, 206) (1082, 84) (1083, 140) (1084, 250) (1085, 307) (1086, 323) (1087, 185) (1088, 9) (1089, -63) (1090, -269) (1091, 121) (1092, -300) (1093, -285) (1094, -71) (1095, -42) (1096, 36321) (1097, 36480) (1098, 36419) (1099, 36383) (1100, 36505) (1101, 36353) (1102, 2337) (1103, 51) (1104, -167) (1105, -58) (1106, 135) (1107, 136) (1108, 117) (1109, 128) (1110, 95) (1111, 71) (1112, 101) (1113, 121) (1114, -28) (1115, 175) (1116, 131) (1117, -14) (1118, 174) (1119, 134) (1120, 132) (1121, 114) (1122, 239) (1123, 860) (1124, 450) (1125, 1332) (1126, 975) (1127, 861) (1128, 120) (1129, 293) (1130, 329) (1131, 444) (1132, 536) (1133, 299) (1134, 342) (1135, 196) (1136, 155) (1137, 451) (1138, -30) (1139, -2) (1140, -39) (1141, -205) (1142, -286) (1143, -222) (1144, 124) (1145, -217) (1146, 36391) (1147, 36364) (1148, 36509) (1149, 36561) (1150, 36384) (1151, 36390) (1152, 36504) (1153, 2394) (1154, -127) (1155, -168) (1156, 151) (1157, 57) (1158, -52) (1159, 279) (1160, 129) (1161, 238) (1162, 137) (1163, 522) (1164, 618) (1165, 554) (1166, 941) (1167, 768) (1168, 596) (1169, 301) (1170, 512) (1171, 356) (1172, 978) (1173, 469) (1174, 423) (1175, 91) (1176, 1065) (1177, 1136) (1178, 882) (1179, 184) (1180, 254) (1181, 263) (1182, 69) (1183, 66) (1184, 188) (1185, 93) (1186, 93) (1187, 127) (1188, -1) (1189, 44) (1190, -198) (1191, -130) (1192, -198) (1193, 95) (1194, -364) (1195, -427) (1196, 36528) (1197, 36317) (1198, 36330) (1199, 36515) (1200, 36489) (1201, 36400) (1202, 36368) (1203, 36536) (1204, 36365) (1205, 87) (1206, -259) (1207, 193) (1208, 183) (1209, 139) (1210, 175) (1211, 183) (1212, 120) (1213, 221) (1214, 251) (1215, 84) (1216, 240) (1217, 311) (1218, 1110) (1219, 3289) (1220, 3214) (1221, 1638) (1222, 1046) (1223, 812) (1224, 975) (1225, 1088) (1226, 503) (1227, 1961) (1228, 3251) (1229, 967) (1230, 902) (1231, 264) (1232, 277) (1233, 75) (1234, 44) (1235, 46) (1236, 6) (1237, 186) (1238, 117) (1239, -235) (1240, -103) (1241, -49) (1242, -2589) (1243, -450) (1244, -219) (1245, 36452) (1246, 36415) (1247, 36372) (1248, 36433) (1249, 36376) (1250, 231) (0, 36386) (1, 36324) (2, 36479) (3, 36389) (4, 36365) (5, 6272) (6, 6150) (7, 217) (8, 145) (9, -6296) (10, -6239) (11, 36409) (12, 36558) (13, 36358) (14, 36321) (15, 2859) (16, 2925) (17, 2892) (18, 3017) (19, 2935) (20, 973) (21, 112) (22, 571) (23, 30) (24, 376) (25, 870) (26, 504) (27, 374) (28, 589) (29, -96) (30, -221) (31, -316) (32, -297) (33, -154) (34, -172) (35, -164) (36, -44) (37, -104) (38, -329) (39, -128) (40, -451) (41, -505) (42, 242) (43, 584) (44, 502) (45, 534) (46, -36188) (47, -36202) (48, 36437) (49, 36334) (50, 36340) (51, 36490) (52, 36350) (53, 36354) (54, 36421) (55, 6329) (56, -112) (57, -25) (58, -205) (59, 5) (60, -66) (61, -100) (62, -1) (63, 220) (64, 233) (65, 181) (66, 850) (67, 418) (68, 310) (69, 356) (70, 326) (71, 101) (72, 306) (73, 271) (74, 216) (75, 454) (76, 443) (77, 529) (78, 104) (79, -37) (80, -159) (81, -118) (82, -185) (83, -135) (84, -204) (85, 105) (86, 114) (87, 47) (88, 172) (89, 179) (90, 89) (91, 194) (92, 37) (93, 102) (94, 1925) (95, 615) (96, -36116) (97, -36171) (98, -36207) (99, 36384) (100, 101) (101, 286) (102, 36330) (103, 36379) (104, 36338) (105, -91) (106, 80) (107, -22) (108, 22) (109, 242) (110, 132) (111, 169) (112, 416) (113, 169) (114, 224) (115, 560) (116, 637) (117, 702) (118, 732) (119, 617) (120, 235) (121, 62) (122, 66) (123, 543) (124, 388) (125, 441) (126, 322) (127, 116) (128, -41) (129, -14) (130, 32) (131, 53) (132, -100) (133, -138) (134, 251) (135, 117) (136, 93) (137, 209) (138, 79) (139, 158) (140, 28) (141, 75) (142, 12) (143, 90) (144, -4) (145, 1008) (146, -1349) (147, -1249) (148, -1235) (149, 36473) (150, 152) (151, 124) (152, 63) (153, 36368) (154, -26) (155, 59) (156, -17) (157, 3) (158, 142) (159, 89) (160, 285) (161, 